solver_type L2R_LR
nr_class 7
label 0 1 2 5 6 3 4
nr_feature 31887
bias -1
w
-0.288161840830247 -0.2611768118680807 -0.5360497328329689 -0.02960361393273393 1.646139799985123 -0.0172097148508873 -0.3547863281258506 
0 0 0 0 0 0 0 
0 0 0 0 0 0 0 
0.5996794649837577 -0.05864299774577515 -0.002064697462497071 -0.2495407481345405 -0.01746413530305323 -0.1438720042165999 -0.002150659923657097 
0 0 0 0 0 0 0 
0 0 0 0 0 0 0 
0.004798813662055082 -0.0006758324924882135 -0.0004234253784801892 -0.002159258208684765 -0.005136584841170424 -0.005036323788926994 -0.004156956067912925 
0 0 0 0 0 0 0 
0 0 0 0 0 0 0 
0.01048290655184386 -0.0009894534385263009 -0.0005494290981967944 -0.001540909125527709 -0.003045164029493885 -0.01619651377078143 -0.001414049568782524 
0 0 0 0 0 0 0 
0 0 0 0 0 0 0 
0.02843105467406058 -0.0009177768734783268 -0.04683579619364178 -0.0002989954123469661 -0.03355304062347288 -1.11093689949784e-05 -0.02174272197179191 
0 0 0 0 0 0 0 
0 0 0 0 0 0 0 
0.005569944556746122 -0.00189656281431008 -0.002043494770203422 -0.001131647805039996 -0.00278689357563732 -0.001519869334021861 -0.001570864526419278 
0 0 0 0 0 0 0 
0 0 0 0 0 0 0 
-0.8858068890998966 -0.631319483776758 -1.742659659387134 -0.2486324274854383 -0.921396754951845 1.626217046409195 2.345917710434186 
0 0 0 0 0 0 0 
0 0 0 0 0 0 0 
0.03532809109814739 -0.02379313419381556 -0.0200000435545052 -0.0266790790778438 -0.02023549224079838 -0.05098582970756201 -0.02057800714675951 
0 0 0 0 0 0 0 
0 0 0 0 0 0 0 
0.02520125931342597 -0.02052308984644132 -0.007696337114951476 -0.009608528541749296 -0.01955030734908619 -0.012220782667072 -0.01753258541221604 
0 0 0 0 0 0 0 
0 0 0 0 0 0 0 
-0.3969358919354586 -0.0853726149720961 -0.6963257591610297 -0.01059336801223182 1.710214321177322 -0.01508983236087325 -0.3113786597726319 
0 0 0 0 0 0 0 
0 0 0 0 0 0 0 
-0.1032886026020399 -0.01692040667231858 0.3793246378442056 -0.001744997708490396 -0.08893703642761824 -0.009212064665754728 -0.159764856501737 
0 0 0 0 0 0 0 
0 0 0 0 0 0 0 
1.301567612718136 -0.1542447054051441 -0.06923013897586038 -0.08293737563457308 -0.07358075989418456 -0.8167218486744475 -0.03220967714387547 
0 0 0 0 0 0 0 
0 0 0 0 0 0 0 
-0.1032886026020399 -0.01692040667231858 0.3793246378442056 -0.001744997708490396 -0.08893703642761824 -0.009212064665754728 -0.159764856501737 
0 0 0 0 0 0 0 
0 0 0 0 0 0 0 
0.01733546269047972 -0.004398950894958721 -0.005399763929158244 -0.006995020320262525 -0.01136350115640649 -0.01408892401977753 -0.008238892458188334 
0 0 0 0 0 0 0 
0 0 0 0 0 0 0 
0.0996839097027226 -0.0464829511667534 -0.01565829251506649 -0.04489119936059716 -0.03860614593434707 -0.05820806513422937 -0.01828001713448925 
0 0 0 0 0 0 0 
0 0 0 0 0 0 0 
-0.08086853652136868 -0.09346223282861245 -0.138351757209504 -0.008847930335167569 0.6346990614433187 -0.003364862888007714 -0.08410610304203742 
0 0 0 0 0 0 0 
0 0 0 0 0 0 0 
0.007271418294601639 -0.0003582432464008717 -0.001434750120487874 -0.001827504460503639 -0.003034421993638456 -0.01103091702485392 -0.003019651899322577 
0 0 0 0 0 0 0 
0 0 0 0 0 0 0 
-0.08086853652136868 -0.09346223282861245 -0.138351757209504 -0.008847930335167569 0.6346990614433187 -0.003364862888007714 -0.08410610304203742 
0 0 0 0 0 0 0 
0 0 0 0 0 0 0 
0.004369022779649362 -0.002958194566605975 -0.003808641676399577 -0.006834930040673923 -0.006597239585177616 -0.004816870948880684 -0.007597159952067048 
0 0 0 0 0 0 0 
0 0 0 0 0 0 0 
-0.2089236625743807 -0.01078534693426812 -0.2174406901550584 -0.002635703814670103 -0.1236538975056294 -0.003059888322931473 0.7781066670513808 
0 0 0 0 0 0 0 
0 0 0 0 0 0 0 
0.01259367780593399 -0.001501260485008576 -0.0001268598715902843 -0.02208201521964835 -0.002858753140600448 -0.003215126854102571 -0.0003712218289304542 
0 0 0 0 0 0 0 
0 0 0 0 0 0 0 
0.1044161644469788 -0.07644210929239793 -0.01045636986171703 -0.02457583080341657 -0.03326337627597098 -0.05600313948700655 -0.013327861471819 
0 0 0 0 0 0 0 
0 0 0 0 0 0 0 
1.021191084151561 -0.1119740114600077 -0.00411998922859183 -0.4336824147547208 -0.03439383054992332 -0.2624338380511982 -0.004291832325024321 
0 0 0 0 0 0 0 
0 0 0 0 0 0 0 
0.03813923492380222 -0.01649794714804316 -0.01329912527411351 -0.03181498901782907 -0.02944456341958972 -0.03019783861073236 -0.02015384117917155 
0 0 0 0 0 0 0 
0 0 0 0 0 0 0 
0.007271418294601639 -0.0003582432464008717 -0.001434750120487874 -0.001827504460503639 -0.003034421993638456 -0.01103091702485392 -0.003019651899322577 
0 0 0 0 0 0 0 
0 0 0 0 0 0 0 
0.007601600931921559 -0.002446243067136907 -0.000535335554189639 -0.001981340593559703 -0.007200388055572346 -0.005885720826098025 -0.0027118473581392 
0 0 0 0 0 0 0 
0 0 0 0 0 0 0 
0.4225697513066609 -0.07529632489812244 -0.006377356262209068 -0.01974801109604511 -0.0006865339358940814 -0.2349389376146809 -0.003998007901432153 
0 0 0 0 0 0 0 
0 0 0 0 0 0 0 
-0.08086853652136868 -0.09346223282861245 -0.138351757209504 -0.008847930335167569 -0.194458655695634 -0.003364862888007714 0.8133385324605623 
0 0 0 0 0 0 0 
0 0 0 0 0 0 0 
-0.09779716728167058 -0.0216608141749587 -0.28699711290435 -0.003693813618162432 0.6925026958404291 -0.007322319425937973 -0.1817552599770411 
0 0 0 0 0 0 0 
0 0 0 0 0 0 0 
0.6620186948831644 -0.1198529048109921 -0.01055803084874609 -0.02679178601257067 -0.005116936657962444 -0.3828119230908575 -0.008532900371886244 
0 0 0 0 0 0 0 
0 0 0 0 0 0 0 
0.03740091127198401 -0.005938616485736677 -0.004409980489014439 -0.05307422399395931 -0.0230738803323252 -0.03173103672919424 -0.01494742410808677 
0 0 0 0 0 0 0 
0 0 0 0 0 0 0 
0.002978861092670092 -0.0001413756347861081 -4.557883442001605e-05 -0.007220823763558289 -0.001339921141926911 -0.001852813307801649 -0.0004316827662501014 
0 0 0 0 0 0 0 
0 0 0 0 0 0 0 
0.3688194956510039 -0.1229366942660579 -0.008299276012923617 -0.1146458310612688 -0.02031508676846289 -0.08430087487160982 -0.007863224601767041 
0 0 0 0 0 0 0 
0 0 0 0 0 0 0 
0.006250888051527552 -4.503358228429377e-05 -0.0007840238922726299 -0.004962164002634748 -0.0009893427048686902 -0.008709686817158025 -0.0005907091723130968 
0 0 0 0 0 0 0 
0 0 0 0 0 0 0 
0.004590206228486556 -0.0009172523275188266 -0.001885469284829446 -0.003637090699081473 -0.01056868239788335 -0.00254777068728844 -0.007635141401838109 
0 0 0 0 0 0 0 
0 0 0 0 0 0 0 
-0.4566379795425884 0.1154174959486887 0.9632177611351874 -0.04684606664387653 -0.3190787797915769 -0.0504634211050092 -0.3270924437694467 
0 0 0 0 0 0 0 
0 0 0 0 0 0 0 
0.03450824418711563 -0.04344448127619 -0.03339249558527159 -0.01805141444479675 -0.04036556949322833 -0.01675169533521286 -0.04592562712843973 
0 0 0 0 0 0 0 
0 0 0 0 0 0 0 
-0.5932465990086832 0.06180599266211542 1.603815862274214 -0.1314305358609998 -0.7001395785181467 -0.1562490972053192 -0.6504268948318419 
0 0 0 0 0 0 0 
0 0 0 0 0 0 0 
0.01129129854283544 -0.005251446395678822 -0.003400243283194321 -0.002703561346514656 -0.006386369081260447 -0.002517371034740129 -0.003369279461351611 
0 0 0 0 0 0 0 
0 0 0 0 0 0 0 
-0.1454736961308115 0.550936226088783 -0.001394439332181499 -0.1059786567095401 -0.04930345308385101 -0.2252908556154085 -0.005099195956144615 
0 0 0 0 0 0 0 
0 0 0 0 0 0 0 
0.00920958710469375 -0.004781888462527379 -0.001770205199346893 -0.008132613388014995 -0.004517832111319276 -0.01034606726862029 -0.003234978621590025 
0 0 0 0 0 0 0 
0 0 0 0 0 0 0 
0.009671416964474516 -0.000993330659420151 -0.01185918694119161 -0.003129441730424481 -0.02206673252251266 -0.002558535619216687 -0.01888990529151615 
0 0 0 0 0 0 0 
0 0 0 0 0 0 0 
0.005738373955249979 -0.004733513055710323 -6.573529579881987e-05 -0.002467615043113679 -0.001031430902203864 -0.003159978486099551 -0.0008072231941937066 
0 0 0 0 0 0 0 
0 0 0 0 0 0 0 
0.0157519892577644 -0.001673716012384461 -0.0006058137029787431 -0.001385400247571837 -0.003152444410279719 -0.01621709063894231 -0.002012667322842035 
0 0 0 0 0 0 0 
0 0 0 0 0 0 0 
0.3757002736382775 -0.01922087797140544 -0.008200116092388009 -0.1178495598692536 -0.00766061503416034 -0.1235535761397825 -0.002006521646108852 
0 0 0 0 0 0 0 
0 0 0 0 0 0 0 
0.0385657671263708 -0.03203506819121058 -0.004680049755092303 -0.01197404001484391 -0.008019236925233366 -0.006364107047444049 -0.007316284684864616 
0 0 0 0 0 0 0 
0 0 0 0 0 0 0 
-0.0993528572819516 -0.01325629380720346 0.2968187147033778 -0.002772414136839347 -0.1713882084160014 -0.01292586132357294 -0.1503522943386008 
0 0 0 0 0 0 0 
0 0 0 0 0 0 0 
-1.29852808350116e-05 -0.0007429760536035856 -0.0005716069106843021 -0.0008336512461946531 -0.001107368398751703 -0.0006923682753383543 -0.002457975847552335 
0 0 0 0 0 0 0 
0 0 0 0 0 0 0 
2.690017506317214 -0.656687785507671 -1.151157519521944 -0.4677644460007974 -0.5670054554223808 -1.460034612407138 -0.6725660751536391 
0 0 0 0 0 0 0 
0 0 0 0 0 0 0 
0.0031988720405223 -0.0005198879284576937 -6.616093335296687e-05 -0.002737355214912706 -0.002628180687751604 -0.003542474815023056 -0.001477723700588296 
0 0 0 0 0 0 0 
0 0 0 0 0 0 0 
-0.2089236625743807 -0.01078534693426812 -0.2174406901550584 -0.002635703814670103 0.7375765335088373 -0.003059888322931473 -0.1042912863166221 
0 0 0 0 0 0 0 
0 0 0 0 0 0 0 
-2.114254903198796 -1.213332690219269 -0.1383067681887477 -1.739998926690852 -0.5394424674697618 3.711700023445438 -0.238989373423652 
0 0 0 0 0 0 0 
0 0 0 0 0 0 0 
-0.2383113645114231 -0.03788780025417243 -0.007907630339839678 -0.02697967086572053 -0.01851058247754213 0.3852336979055822 -0.007947910547749277 
0 0 0 0 0 0 0 
0 0 0 0 0 0 0 
0.005942312163806477 -0.000282579479806658 -9.105696221154943e-05 -0.01434119591851848 -0.002676825046062854 -0.003699199094762093 -0.0008630424558443443 
0 0 0 0 0 0 0 
0 0 0 0 0 0 0 
0.03045409088173444 -0.01114712292947497 -0.008273100059195369 -0.0231150525742267 -0.0280755523725875 -0.02935470973719759 -0.01737046305207475 
0 0 0 0 0 0 0 
0 0 0 0 0 0 0 
-0.1323065891211984 0.3906470662876722 -0.00179169385386037 -0.114665242964785 -0.01384320401740835 -0.2116845266774532 -0.00385836282108911 
0 0 0 0 0 0 0 
0 0 0 0 0 0 0 
0.008547551396534413 -0.0004534629799621213 -0.0005438704493675795 -0.0140311205813274 -0.002238945623446467 -0.004139094206551243 -0.0004858068673192576 
0 0 0 0 0 0 0 
0 0 0 0 0 0 0 
0.003339051386650185 -0.002700429161524388 -0.001290308599570031 -0.004441850661351564 -0.002464364040652367 -0.003969095148476509 -0.001923365263453714 
0 0 0 0 0 0 0 
0 0 0 0 0 0 0 
0.002978861092670092 -0.0001413756347861081 -4.557883442001605e-05 -0.007220823763558289 -0.001339921141926911 -0.001852813307801649 -0.0004316827662501014 
0 0 0 0 0 0 0 
0 0 0 0 0 0 0 
0.6040322413852978 -0.01078534693426812 -0.2174406901550584 -0.002635703814670103 -0.1236538975056294 -0.003059888322931473 -0.1042912863166221 
0 0 0 0 0 0 0 
0 0 0 0 0 0 0 
0.02247004338326663 -0.009094545003347044 -0.0007417502289565835 -0.004067265950377492 -0.00926289486758943 -0.008641578548323339 -0.001876294258952544 
0 0 0 0 0 0 0 
0 0 0 0 0 0 0 
0.00161662280763394 -0.002692856636751174 -0.0002605772907228312 -0.001524976328996673 -0.000765736599769287 -0.0005988320095732689 -0.0007559929129208257 
0 0 0 0 0 0 0 
0 0 0 0 0 0 0 
0.03234680418384765 -0.01583658093878954 -0.02101723391132022 -0.01915793423653808 -0.02989153361872837 -0.03339655692889198 -0.02678125715386135 
0 0 0 0 0 0 0 
0 0 0 0 0 0 0 
0.01317286084801701 -0.00116455305727453 -0.02505338407104177 -0.001500030735300562 -0.02592050418060491 -0.001053808151517719 -0.02298095016960884 
0 0 0 0 0 0 0 
0 0 0 0 0 0 0 
0.01048290655184386 -0.0009894534385263009 -0.0005494290981967944 -0.001540909125527709 -0.003045164029493885 -0.01619651377078143 -0.001414049568782524 
0 0 0 0 0 0 0 
0 0 0 0 0 0 0 
0.0298128417489415 -0.0188295399194501 -0.005066773750907032 -0.01798223232676901 -0.01380372463161371 -0.01543017555942718 -0.005727675332230142 
0 0 0 0 0 0 0 
0 0 0 0 0 0 0 
0.0007860669306505647 -0.0007037342440949714 -0.0003626969208840031 -0.001467069710059394 -0.001500907158484302 -6.31541183837911e-06 -0.001094406271911586 
0 0 0 0 0 0 0 
0 0 0 0 0 0 0 
-0.09891503032188367 -0.07257872150904705 0.3827353380272476 -0.002496831608402444 -0.1217663289243299 -0.001635530389239945 -0.06957227625945861 
0 0 0 0 0 0 0 
0 0 0 0 0 0 0 
0.02079862112668044 -0.004050954206042792 -0.003532826972445801 -0.03745805651946982 -0.01685656364875671 -0.02378328036443716 -0.01123161491444953 
0 0 0 0 0 0 0 
0 0 0 0 0 0 0 
0.02424697794873642 -0.05438887314126292 -0.04917978460444293 -0.05474586463286087 -0.0594732219343251 -0.04468992946832512 -0.0586764560350583 
0 0 0 0 0 0 0 
0 0 0 0 0 0 0 
-0.2386011616046311 0.4340829862205782 0.4309464240619377 -0.04004134793398893 -0.1301213596773529 -0.1471585811176445 -0.1662196274438697 
0 0 0 0 0 0 0 
0 0 0 0 0 0 0 
0.002978861092670092 -0.0001413756347861081 -4.557883442001605e-05 -0.007220823763558289 -0.001339921141926911 -0.001852813307801649 -0.0004316827662501014 
0 0 0 0 0 0 0 
0 0 0 0 0 0 0 
0.03548577193346068 -0.02416037246884822 -0.02377402725128474 -0.007856576103584678 -0.02645015442872394 -0.005424278202412516 -0.02238099345434712 
0 0 0 0 0 0 0 
0 0 0 0 0 0 0 
-0.1454736961308115 -0.2540960548792665 -0.001394439332181499 -0.1059786567095401 -0.04930345308385101 0.5842574998639209 -0.005099195956144615 
0 0 0 0 0 0 0 
0 0 0 0 0 0 0 
0.003074700373619948 -0.002376214416257313 -0.000159909477784704 -0.003309874054506346 -0.003329725035517552 -0.0106177203954367 -0.002323302589112905 
0 0 0 0 0 0 0 
0 0 0 0 0 0 0 
-0.3458095355590359 -0.1153578499641235 0.8959184703899493 -0.007374353340200752 -0.2714425964468145 -0.01359955594449972 -0.2698138059253487 
0 0 0 0 0 0 0 
0 0 0 0 0 0 0 
0.002096202298868645 -0.000997094799023308 -0.000413784185365881 -0.003915123655118469 -0.003315899962610838 -0.007289185990400539 -0.004943022244416282 
0 0 0 0 0 0 0 
0 0 0 0 0 0 0 
0.005528434573059158 -0.006687186142628977 -0.002516265028441767 -0.005438734795990446 -0.005809991321461852 -0.003261801847412304 -0.004345732433598693 
0 0 0 0 0 0 0 
0 0 0 0 0 0 0 
0.03610177393545402 -0.008256272899918458 -0.004383664046419675 -0.03093604384167656 -0.0193009001056859 -0.02557327268451508 -0.01017124708262021 
0 0 0 0 0 0 0 
0 0 0 0 0 0 0 
0.001614395990296064 -0.0030987349450146 -0.0002891778820934619 -0.001192866458032689 -0.002422865880037962 -7.92015236058858e-05 -0.000777105708854704 
0 0 0 0 0 0 0 
0 0 0 0 0 0 0 
0.3149611916601949 -0.0235080240807827 -0.0455507141502926 -0.02679855425632997 -0.007634366932901052 -0.1862510549267546 -0.0172237549296375 
0 0 0 0 0 0 0 
0 0 0 0 0 0 0 
-0.0993528572819516 -0.01325629380720346 0.2968187147033778 -0.002772414136839347 -0.1713882084160014 -0.01292586132357294 -0.1503522943386008 
0 0 0 0 0 0 0 
0 0 0 0 0 0 0 
0.08344060670297868 -0.09239408801459657 -0.03872928790609886 -0.08954670115217211 -0.0685194473490241 -0.04889455625041326 -0.04841277093970828 
0 0 0 0 0 0 0 
0 0 0 0 0 0 0 
0.0157519892577644 -0.001673716012384461 -0.0006058137029787431 -0.001385400247571837 -0.003152444410279719 -0.01621709063894231 -0.002012667322842035 
0 0 0 0 0 0 0 
0 0 0 0 0 0 0 
-0.1454736961308115 -0.2540960548792665 -0.001394439332181499 -0.1059786567095401 -0.04930345308385101 0.5842574998639209 -0.005099195956144615 
0 0 0 0 0 0 0 
0 0 0 0 0 0 0 
0.05180065018308857 -0.01374424310662385 -0.002653399567402894 -0.0111854773838578 -0.01244225208260276 -0.02862076550715725 -0.007622636507307201 
0 0 0 0 0 0 0 
0 0 0 0 0 0 0 
-0.2947343993737846 0.4653176866365043 -0.006707405167352389 -0.06237477227534122 -0.02961011538090884 -0.0332808687638475 -0.003858190209754382 
0 0 0 0 0 0 0 
0 0 0 0 0 0 0 
0.003560753055014936 -0.001441485323226017 -0.002704630770461455 -0.0008262362620992125 -0.001751621386861755 -0.001158094493790383 -0.001062648790734322 
0 0 0 0 0 0 0 
0 0 0 0 0 0 0 
0.003481266598851192 -0.00228349102601607 -0.001400097580770643 -0.003109201142922498 -0.003115303449053482 -0.002243605480097078 -0.001911901749357837 
0 0 0 0 0 0 0 
0 0 0 0 0 0 0 
0.005569944556746122 -0.00189656281431008 -0.002043494770203422 -0.001131647805039996 -0.00278689357563732 -0.001519869334021861 -0.001570864526419278 
0 0 0 0 0 0 0 
0 0 0 0 0 0 0 
0.001440735070697124 -0.0008942906116512525 -0.0005936890653573861 -0.001498851260967174 -0.000594678461409807 -0.002222458564134641 -0.0006059400413318394 
0 0 0 0 0 0 0 
0 0 0 0 0 0 0 
-0.7509309512513554 -0.1196514890214357 -0.01196686111263543 -0.1538311448961959 -0.05646620798811883 1.281048723030278 -0.0243609566456063 
0 0 0 0 0 0 0 
0 0 0 0 0 0 0 
0.03069388157080191 -0.00881930870200265 -0.006736066592778546 -0.0118970612541564 -0.01400259651209239 -0.03174125641899329 -0.008808885854789936 
0 0 0 0 0 0 0 
0 0 0 0 0 0 0 
0.004042964884736774 -0.003414619293703776 -0.00124864228316412 -0.002700379731608556 -0.003426385198364607 -0.003077863162796195 -0.00319728101465734 
0 0 0 0 0 0 0 
0 0 0 0 0 0 0 
0.7905923252117441 -0.09346223282861245 -0.138351757209504 -0.008847930335167569 -0.194458655695634 -0.003364862888007714 -0.08410610304203742 
0 0 0 0 0 0 0 
0 0 0 0 0 0 0 
0.001851163709433618 5.08339113292392e-05 -9.176732305481565e-05 -0.008775866784406882 -0.0008297720240774241 -0.001846590504390485 -0.0006103815703106608 
0 0 0 0 0 0 0 
0 0 0 0 0 0 0 
-0.4113322958131392 -0.4818598354704967 -0.002469824045579477 -0.1803668922713779 -0.0510052008085351 1.138055285012582 -0.006878017261781566 
0 0 0 0 0 0 0 
0 0 0 0 0 0 0 
-0.4248601605766287 -0.005841931699092901 -0.003848950305801154 0.7825299818545562 -0.009595900336322582 -0.1334159360877486 -0.002761550869457548 
0 0 0 0 0 0 0 
0 0 0 0 0 0 0 
0.009260553983730416 -0.01129162119226827 -0.004864472110573507 -0.01063072242528209 -0.009657165803756598 -0.005962237904631722 -0.004676012928952362 
0 0 0 0 0 0 0 
0 0 0 0 0 0 0 
0.02180254139348616 -0.01029814430918849 -0.003291464704469479 -0.01531870731556771 -0.007330715804830716 -0.01124481094229712 -0.003838167188315802 
0 0 0 0 0 0 0 
0 0 0 0 0 0 0 
0.04435551577310937 -0.04447248897917241 -0.02006898343192418 -0.03118006233536665 -0.03679011835107523 -0.03024700342300566 -0.03963136073174298 
0 0 0 0 0 0 0 
0 0 0 0 0 0 0 
0.003560753055014936 -0.001441485323226017 -0.002704630770461455 -0.0008262362620992125 -0.001751621386861755 -0.001158094493790383 -0.001062648790734322 
0 0 0 0 0 0 0 
0 0 0 0 0 0 0 
-0.09930819785472887 -0.01206641947360364 0.4435551888642628 -0.00265729507823383 -0.124116530458413 -0.01019996167740083 -0.1639049620483361 
0 0 0 0 0 0 0 
0 0 0 0 0 0 0 
0.01748310176320985 -0.002297431381933749 -0.02369457717040162 -0.002370913212250769 -0.02835368421483722 -0.003553500755683812 -0.02276549190262551 
0 0 0 0 0 0 0 
0 0 0 0 0 0 0 
0.2910856477893504 -0.002925923076892797 -0.004134359007324112 -0.04316864351854672 -0.003697349159396189 -0.1768023857812227 -0.004249700332916496 
0 0 0 0 0 0 0 
0 0 0 0 0 0 0 
0.07886604878497276 -0.01667176494090521 -0.02521675193145629 -0.006178166930410671 -0.005892813561030196 -0.04924393238227525 -0.01179658804512782 
0 0 0 0 0 0 0 
0 0 0 0 0 0 0 
0.02133796005896384 -0.005743869953447615 -0.00291351540697187 -0.007762271078187995 -0.01030862877775164 -0.01416548000509979 -0.009023431988269617 
0 0 0 0 0 0 0 
0 0 0 0 0 0 0 
-0.0993528572819516 -0.01325629380720346 0.2968187147033778 -0.002772414136839347 -0.1713882084160014 -0.01292586132357294 -0.1503522943386008 
0 0 0 0 0 0 0 
0 0 0 0 0 0 0 
0.01185863584353849 -0.002266549159501286 -0.00071203591017639 -0.001700462542403453 -0.0007738214367843272 -0.01455755505340679 -0.001069169271382321 
0 0 0 0 0 0 0 
0 0 0 0 0 0 0 
0.01977866501652497 -0.0004119034714946349 -0.001007708582857314 -0.01596663835804237 -0.003682480933069808 -0.01648151979266708 -0.001874984194619217 
0 0 0 0 0 0 0 
0 0 0 0 0 0 0 
0.007891707184532028 -0.003943636953060233 -0.006619890859529288 -0.003125584388827683 -0.002874697708837744 -0.007495691338317373 -0.004862546641524453 
0 0 0 0 0 0 0 
0 0 0 0 0 0 0 
0.02885409214674086 -0.01024864451975722 -0.007311038844704639 -0.009264414555728125 -0.01844203375522172 -0.01770316590153797 -0.01138353463598827 
0 0 0 0 0 0 0 
0 0 0 0 0 0 0 
-0.2383113645114231 -0.03788780025417243 -0.007907630339839678 -0.02697967086572053 -0.01851058247754213 0.3852336979055822 -0.007947910547749277 
0 0 0 0 0 0 0 
0 0 0 0 0 0 0 
7.054359224076203e-06 -0.0001620911999577402 -0.0003002740265843321 -0.0006835919313592906 -0.0008203081184606838 -0.0001968692385425502 -0.001561025291012072 
0 0 0 0 0 0 0 
0 0 0 0 0 0 0 
0.026782555718445 -0.009836791105308357 -0.002764344856440072 -0.02434634550734373 -0.03224322740131063 -0.01711102970619301 -0.01973551907724803 
0 0 0 0 0 0 0 
0 0 0 0 0 0 0 
-0.1323065891211984 0.3906470662876722 -0.00179169385386037 -0.114665242964785 -0.01384320401740835 -0.2116845266774532 -0.00385836282108911 
0 0 0 0 0 0 0 
0 0 0 0 0 0 0 
0.02292216246720474 -0.003309136930966617 -0.002638371984972103 -0.006702533602609496 -0.01235578501840233 -0.02352235650678939 -0.006836346170599766 
0 0 0 0 0 0 0 
0 0 0 0 0 0 0 
-0.3458523476362045 -0.1862547044390541 -0.02047374397719517 -0.05497468031531772 -0.009947673496143823 0.6880147078107391 -0.01446185435424133 
0 0 0 0 0 0 0 
0 0 0 0 0 0 0 
0.005807821093282725 -0.002686027297525614 -0.0014423433451812 -0.01100788002819153 -0.007147989656562454 -0.005035614374961838 -0.004130474206861178 
0 0 0 0 0 0 0 
0 0 0 0 0 0 0 
0.01170069171141913 -0.0009490765817660065 -0.0007277751804248882 -0.003461800717507663 -0.006208853843875728 -0.008828207599685965 -0.005120527208201374 
0 0 0 0 0 0 0 
0 0 0 0 0 0 0 
0.008317171540481635 -0.003346611778341615 -0.0130437002164449 -0.00385259843970086 -0.005057873296984591 -0.01292379613959572 -0.006991619515504912 
0 0 0 0 0 0 0 
0 0 0 0 0 0 0 
0.5996794649837577 -0.05864299774577515 -0.002064697462497071 -0.2495407481345405 -0.01746413530305323 -0.1438720042165999 -0.002150659923657097 
0 0 0 0 0 0 0 
0 0 0 0 0 0 0 
0.05114688883592195 -0.006628483739966724 -0.1353800542066233 -0.01204377671446369 -0.06644964566088284 -0.00665644967402107 -0.08973183084576226 
0 0 0 0 0 0 0 
0 0 0 0 0 0 0 
0.003566340962263785 -0.001879791831894995 -8.319512270966969e-05 -0.00242611306630594 -0.0008406400489835537 -0.002694747919423509 -0.0006628973132432202 
0 0 0 0 0 0 0 
0 0 0 0 0 0 0 
0.007533501920531314 -0.009493498457748877 -0.005470979184571984 -0.005819709122341853 -0.01080694288975353 -0.004669133576187182 -0.0152889676636493 
0 0 0 0 0 0 0 
0 0 0 0 0 0 0 
-0.5422642776934775 -0.5047057492225953 -0.006879586587171055 -0.541082613605505 -0.1242039465123678 1.65369025435061 -0.0143554849163471 
0 0 0 0 0 0 0 
0 0 0 0 0 0 0 
0.002472651886333203 -0.001506814856441144 -9.199208953622282e-05 -0.001802455919962583 -0.0001892839976400712 -0.001901742908230577 -0.0003352641444867562 
0 0 0 0 0 0 0 
0 0 0 0 0 0 0 
0.004687088223633453 -0.0001057962590583861 -0.01456413721973257 -9.146818382139714e-05 -0.007326303465414842 8.579398299628764e-05 -0.009211125658185538 
0 0 0 0 0 0 0 
0 0 0 0 0 0 0 
1.813164881137524 -0.9367612465801322 -0.199376686002903 -0.4132958477489713 -0.3898842044922299 -0.7052891042459716 0.6358270496212697 
0 0 0 0 0 0 0 
0 0 0 0 0 0 0 
0.009875122199182407 -0.01762583551435033 -0.006545922785332503 -0.002827275142885988 -0.003833762066982448 -0.001519122172020439 -0.001760167891789858 
0 0 0 0 0 0 0 
0 0 0 0 0 0 0 
0.01254167237514272 -0.0002278409276233189 -0.02366059864743201 -0.0001313042570045216 -0.02430057006773084 2.233177887524482e-05 -0.02172991288836415 
0 0 0 0 0 0 0 
0 0 0 0 0 0 0 
0.006250888051527552 -4.503358228429377e-05 -0.0007840238922726299 -0.004962164002634748 -0.0009893427048686902 -0.008709686817158025 -0.0005907091723130968 
0 0 0 0 0 0 0 
0 0 0 0 0 0 0 
0.7905923252117441 -0.09346223282861245 -0.138351757209504 -0.008847930335167569 -0.194458655695634 -0.003364862888007714 -0.08410610304203742 
0 0 0 0 0 0 0 
0 0 0 0 0 0 0 
0.002978861092670092 -0.0001413756347861081 -4.557883442001605e-05 -0.007220823763558289 -0.001339921141926911 -0.001852813307801649 -0.0004316827662501014 
0 0 0 0 0 0 0 
0 0 0 0 0 0 0 
0.03949892954160747 -0.005388717244448205 -0.008239902074619714 -0.0100487089242041 -0.02482821125908295 -0.03568645896284581 -0.0242351358971453 
0 0 0 0 0 0 0 
0 0 0 0 0 0 0 
-0.1454736961308115 0.550936226088783 -0.001394439332181499 -0.1059786567095401 -0.04930345308385101 -0.2252908556154085 -0.005099195956144615 
0 0 0 0 0 0 0 
0 0 0 0 0 0 0 
0.7536380276574199 -0.01692040667231858 -0.4195184506703687 -0.001744997708490396 -0.08893703642761824 -0.009212064665754728 -0.159764856501737 
0 0 0 0 0 0 0 
0 0 0 0 0 0 0 
0.007385340349583951 -0.006498549796829201 -0.001216747233199136 -0.002890670597202033 -0.002112927000436549 -0.002840606822015016 -0.001984007453997357 
0 0 0 0 0 0 0 
0 0 0 0 0 0 0 
0.005829985769856998 -0.01218262209873742 -0.002779122240667216 -0.001062759226732591 -0.002660379789445175 -1.195367568959871e-05 -0.0005131057364255599 
0 0 0 0 0 0 0 
0 0 0 0 0 0 0 
0.01591881850120761 -0.00153144834874301 -0.004263065777183829 -0.01068595560326872 -0.003722373164090185 -0.01839718930127761 -0.002240679400899398 
0 0 0 0 0 0 0 
0 0 0 0 0 0 0 
-0.09779716728167058 -0.0216608141749587 0.5202843106467765 -0.003693813618162432 -0.1534095232174488 -0.007322319425937973 -0.1817552599770411 
0 0 0 0 0 0 0 
0 0 0 0 0 0 0 
0.3939583972277318 -0.04417428044651401 -0.01364835308689344 -0.03254630641361703 -0.01287957670586356 -0.205801481010785 -0.008385589614296217 
0 0 0 0 0 0 0 
0 0 0 0 0 0 0 
0.05918365574259794 -0.03964035592614725 -0.0237355920735152 -0.03441189739005339 -0.04134074128276511 -0.03699032821366032 -0.02951216099357093 
0 0 0 0 0 0 0 
0 0 0 0 0 0 0 
0.006250888051527552 -4.503358228429377e-05 -0.0007840238922726299 -0.004962164002634748 -0.0009893427048686902 -0.008709686817158025 -0.0005907091723130968 
0 0 0 0 0 0 0 
0 0 0 0 0 0 0 
0.003465594109502329 -0.0007911661024010655 -0.0001786200199118624 -0.002660702416604894 -0.004194978681700889 -0.002363488774576939 -0.002324266858496496 
0 0 0 0 0 0 0 
0 0 0 0 0 0 0 
0.001614395990296064 -0.0030987349450146 -0.0002891778820934619 -0.001192866458032689 -0.002422865880037962 -7.92015236058858e-05 -0.000777105708854704 
0 0 0 0 0 0 0 
0 0 0 0 0 0 0 
0.002978861092670092 -0.0001413756347861081 -4.557883442001605e-05 -0.007220823763558289 -0.001339921141926911 -0.001852813307801649 -0.0004316827662501014 
0 0 0 0 0 0 0 
0 0 0 0 0 0 0 
0.01172804511494602 -0.001469012686746395 -0.006004323897075045 -0.002411217590033763 -0.007169559243059562 -0.007653160574564805 -0.01304798678028493 
0 0 0 0 0 0 0 
0 0 0 0 0 0 0 
0.002025057182217568 -0.0002518327251710148 -0.0003646759501866989 -0.009746575073486903 -0.001209901463525562 -0.003463149374449159 -0.0007089186338507953 
0 0 0 0 0 0 0 
0 0 0 0 0 0 0 
0.01420227920981086 -0.0008254802145710289 -0.001291943576772214 -0.006607409580788348 -0.006157310992036939 -0.01368597843880474 -0.004985273583282467 
0 0 0 0 0 0 0 
0 0 0 0 0 0 0 
0.003704196511350338 -0.003259542725206684 -0.0006087637051134162 -0.001447380900556888 -0.001057635294876742 -0.001422176712033682 -0.0009929868033197622 
0 0 0 0 0 0 0 
0 0 0 0 0 0 0 
-1.208070351815378 -0.2245950017024045 -0.02025254720356031 -0.1330834721648244 1.57497536689559 0.6148016297816261 -0.04374436305216609 
0 0 0 0 0 0 0 
0 0 0 0 0 0 0 
0.004410635489411852 -0.01058445165564077 -0.001172591957975085 -0.007556380095183946 -0.00705581101936769 -0.002008245632056921 -0.002290780343002056 
0 0 0 0 0 0 0 
0 0 0 0 0 0 0 
0.002992797845071092 -0.00769467697611986 -0.003367642540648594 -0.005198079962951857 -0.004495472397032995 -0.003722592254931902 -0.004388188201671423 
0 0 0 0 0 0 0 
0 0 0 0 0 0 0 
0.003704196511350338 -0.003259542725206684 -0.0006087637051134162 -0.001447380900556888 -0.001057635294876742 -0.001422176712033682 -0.0009929868033197622 
0 0 0 0 0 0 0 
0 0 0 0 0 0 0 
0.00109049141760464 -0.001584428799330126 -0.001315197898511584 -0.001192476250637445 -0.001888648140915038 -0.001477707883731804 -0.002186745078836828 
0 0 0 0 0 0 0 
0 0 0 0 0 0 0 
-0.1454736961308115 -0.2540960548792665 -0.001394439332181499 0.7760194322601913 -0.04930345308385101 -0.2252908556154085 -0.005099195956144615 
0 0 0 0 0 0 0 
0 0 0 0 0 0 0 
-1.503752461156028 -0.08025836343090759 -0.02411962322043667 2.65553407451148 -0.07089940784786038 -0.6872266006348566 -0.03161233562174307 
0 0 0 0 0 0 0 
0 0 0 0 0 0 0 
1.463025120581909 -0.521660170851179 -0.1570631038618225 -0.196510673413699 -0.2028804483833783 -0.5368851951491524 -0.1049099366143018 
0 0 0 0 0 0 0 
0 0 0 0 0 0 0 
-0.4314429118459091 0.7775912593408081 0.3719418147269417 -0.02142858107188941 -0.08951387526823391 -0.241304968798031 -0.1627786213010993 
0 0 0 0 0 0 0 
0 0 0 0 0 0 0 
0.002978861092670092 -0.0001413756347861081 -4.557883442001605e-05 -0.007220823763558289 -0.001339921141926911 -0.001852813307801649 -0.0004316827662501014 
0 0 0 0 0 0 0 
0 0 0 0 0 0 0 
0.009484034461077309 -0.0001497811524096711 -0.0008693799801077817 -0.004467182223902593 -0.001030284347162356 -0.008735499728087273 -0.0008351094354985821 
0 0 0 0 0 0 0 
0 0 0 0 0 0 0 
0.002405734278885783 -0.002425219316250755 -0.002322751757680008 -0.002483277801710151 -0.004394474494707155 -0.001445740831599616 -0.002161069325846213 
0 0 0 0 0 0 0 
0 0 0 0 0 0 0 
0.0373746805567986 -0.01595407720810821 -0.01298347707647089 -0.05190780085282971 -0.02928314750870994 -0.03377536637007067 -0.03499097516586108 
0 0 0 0 0 0 0 
0 0 0 0 0 0 0 
0.005780089920155286 -0.003368095850272174 -0.001362691427685008 -0.001575502185232778 -0.003618942329408267 -0.001001110681751058 -0.001804615038904874 
0 0 0 0 0 0 0 
0 0 0 0 0 0 0 
0.01699540609486544 -0.001680083480025713 -0.00168170696198337 -0.003728392735328912 -0.007816991168713502 -0.01645188686337873 -0.005441834815611015 
0 0 0 0 0 0 0 
0 0 0 0 0 0 0 
-0.2979491884925482 -0.05772589758202324 -0.008019313916652582 -0.03900064433978115 -0.03848741614318154 0.6401073959164563 -0.009080196380433348 
0 0 0 0 0 0 0 
0 0 0 0 0 0 0 
-0.3148709769433377 -0.1064272753618069 -0.005477620626683443 -0.04259964226101984 -0.02223426783230533 0.6199895473147886 -0.004742044431715012 
0 0 0 0 0 0 0 
0 0 0 0 0 0 0 
-0.08086853652136868 0.7773605899476763 -0.138351757209504 -0.008847930335167569 -0.194458655695634 -0.003364862888007714 -0.08410610304203742 
0 0 0 0 0 0 0 
0 0 0 0 0 0 0 
0.006944089810314774 -0.002710776719864892 -0.005609530988979656 -0.001422786246409839 -0.002037086084043791 -0.006577801007660923 -0.003942339631886204 
0 0 0 0 0 0 0 
0 0 0 0 0 0 0 
0.00150871887660682 -0.003848850994133256 -0.002106861137926636 -0.00249534589932579 -0.001246505615299453 -0.001466998690990157 -0.001513496338636608 
0 0 0 0 0 0 0 
0 0 0 0 0 0 0 
-0.9409839207118548 -1.091771867017073 -0.3616169994788456 2.51289414165273 1.011150340018522 -1.114565119498234 -0.2693950963266986 
0 0 0 0 0 0 0 
0 0 0 0 0 0 0 
0.004116510677589758 -0.0003659559910743138 -0.0004620400276012703 -0.002483477614584216 -0.004667107340740899 -0.003715850232208968 -0.002490920083030749 
0 0 0 0 0 0 0 
0 0 0 0 0 0 0 
0.3492174572240136 -0.06230055181578587 -0.04341176303015842 -0.04730890947443676 -0.03992639926873696 -0.2293332576734215 -0.03289609956910074 
0 0 0 0 0 0 0 
0 0 0 0 0 0 0 
0.001886728576898898 -0.00037816487143018 -0.003496131458327396 -0.001705945852545659 -0.001208305683464618 -0.004602668729228027 -0.002194566449656261 
0 0 0 0 0 0 0 
0 0 0 0 0 0 0 
-0.3656301126223214 -0.07529632489812244 -0.006377356262209068 -0.01974801109604511 -0.0006865339358940814 0.5717642727961888 -0.003998007901432153 
0 0 0 0 0 0 0 
0 0 0 0 0 0 0 
0.2805316210733428 -0.01000434114854079 -0.003033686080668327 -0.05402190691707058 -0.01593912399392314 -0.1220798493235529 -0.01747867383602063 
0 0 0 0 0 0 0 
0 0 0 0 0 0 0 
0.04100044924690009 -0.002913756185689631 -0.01304806646483473 -0.0004750420037491807 -0.04278078603079978 2.497961048295502e-05 -0.01696544912122961 
0 0 0 0 0 0 0 
0 0 0 0 0 0 0 
0.02978534006272867 -0.005413358188375441 -0.01485942225431899 -0.01091640430823364 -0.02434976511325298 -0.02039533823451556 -0.03117984831765275 
0 0 0 0 0 0 0 
0 0 0 0 0 0 0 
0.00140761722719597 -0.003070573019314882 -0.001267795021736073 -0.001364217480123945 -0.003206350273517231 -0.0003883091812622226 -0.00168467740140421 
0 0 0 0 0 0 0 
0 0 0 0 0 0 0 
0.1015993479273728 -0.09449416130601339 -0.07012538797487849 -0.06596022366850904 -0.105503903651272 -0.06217164005049493 -0.09367217411991779 
0 0 0 0 0 0 0 
0 0 0 0 0 0 0 
0.01573565406513006 -0.001314433293848468 -0.001189124204111148 -0.00592857157696171 -0.010823838753206 -0.01248079829681552 -0.007586844489349653 
0 0 0 0 0 0 0 
0 0 0 0 0 0 0 
0.002405734278885783 -0.002425219316250755 -0.002322751757680008 -0.002483277801710151 -0.004394474494707155 -0.001445740831599616 -0.002161069325846213 
0 0 0 0 0 0 0 
0 0 0 0 0 0 0 
0.007669090549891776 -0.006736878233750717 -0.006115865976865633 -0.008191326709824679 -0.006438391185644823 -0.006310056533044438 -0.004137014533834431 
0 0 0 0 0 0 0 
0 0 0 0 0 0 0 
0.001883339449401793 -0.0010177324805458 -0.0003405179057943043 -0.001814079957451048 -0.001846252710987376 -0.001537340949487179 -0.0006589583879216427 
0 0 0 0 0 0 0 
0 0 0 0 0 0 0 
0.03237918028626258 -0.02752854424607399 -0.009537782459452606 -0.03608611723857124 -0.03847579641761311 -0.02470881390835013 -0.02611588739918979 
0 0 0 0 0 0 0 
0 0 0 0 0 0 0 
0.01587216847931579 -0.02059453619266563 -0.01210056251840854 -0.02353907052333993 -0.02163456951693733 -0.01268887876359883 -0.02898948436846831 
0 0 0 0 0 0 0 
0 0 0 0 0 0 0 
0.005583418795302149 -0.002503093111308426 -0.00289150368719973 -0.0007407647557283402 -0.001819539823366935 -0.001295075828611099 -0.001504255123098368 
0 0 0 0 0 0 0 
0 0 0 0 0 0 0 
-1.149810995213252 -1.888169535415677 -0.05045269302122413 -0.4722632082429413 -0.5892612330729882 2.635764537304027 -0.1097318660843693 
0 0 0 0 0 0 0 
0 0 0 0 0 0 0 
0.004119512266540313 -0.0005113137402946061 -0.0001873112442007829 -0.0007918016489145426 -0.001794987916166678 -0.007826538245918694 -0.001794099986084458 
0 0 0 0 0 0 0 
0 0 0 0 0 0 0 
0.001851163709433618 5.08339113292392e-05 -9.176732305481565e-05 -0.008775866784406882 -0.0008297720240774241 -0.001846590504390485 -0.0006103815703106608 
0 0 0 0 0 0 0 
0 0 0 0 0 0 0 
0.01103293037908399 -0.003897710148564459 -0.001419006190982287 -0.00145450450883881 -0.001120354846272831 -0.004849643634151241 -0.001790711987589983 
0 0 0 0 0 0 0 
0 0 0 0 0 0 0 
0.002993198000169071 -0.004736383940108162 -0.0009877219136736773 -0.003202073737531539 -0.003535059271961316 -0.001664891534826783 -0.002647431782209983 
0 0 0 0 0 0 0 
0 0 0 0 0 0 0 
-0.3119497957179695 -0.2984521640766381 -0.001078611162662756 0.8070849479468356 -0.001875481951661468 -0.1119356241716088 -0.001796608883339119 
0 0 0 0 0 0 0 
0 0 0 0 0 0 0 
0.005780089920155286 -0.003368095850272174 -0.001362691427685008 -0.001575502185232778 -0.003618942329408267 -0.001001110681751058 -0.001804615038904874 
0 0 0 0 0 0 0 
0 0 0 0 0 0 0 
0.004216531545647636 -0.003627462558076265 -0.006187870879984031 -0.006149370500092752 -0.009050878433903922 -0.005937905704498487 -0.007807994146248848 
0 0 0 0 0 0 0 
0 0 0 0 0 0 0 
0.0103498734855928 -0.0004849428016640525 -0.01161023142133739 -0.0001370932234466562 -0.02213053093009671 8.913016719528928e-05 -0.0203985356604668 
0 0 0 0 0 0 0 
0 0 0 0 0 0 0 
0.004672210234017912 -0.00117515577348243 -0.0002520694120584204 -0.0008749303848052285 -0.0004622247963459264 -0.007022534829334692 -0.001350292874303995 
0 0 0 0 0 0 0 
0 0 0 0 0 0 0 
-0.08086853652136868 -0.09346223282861245 -0.138351757209504 -0.008847930335167569 0.6346990614433187 -0.003364862888007714 -0.08410610304203742 
0 0 0 0 0 0 0 
0 0 0 0 0 0 0 
0.1749420912553615 -0.03981691550124003 -0.01971269283167806 -0.0241490867513595 -0.01043554117338205 -0.06119717170472943 -0.007364610816864021 
0 0 0 0 0 0 0 
0 0 0 0 0 0 0 
0.01397958538846294 -0.002428128635089271 -0.003251021183756446 -0.00236465324522172 -0.004787311826561901 -0.0173187043529819 -0.002473598867459009 
0 0 0 0 0 0 0 
0 0 0 0 0 0 0 
0.01524263924936851 -0.004815356284933488 -0.00110315383157552 -0.01139321045010319 -0.01395421386805619 -0.009920225212888118 -0.003602355294815831 
0 0 0 0 0 0 0 
0 0 0 0 0 0 0 
0.005282098834220232 -0.0044604131411138 -0.002596864976206948 -0.003344664578308461 -0.008077504916962585 -0.001110804949592406 -0.002569963759410947 
0 0 0 0 0 0 0 
0 0 0 0 0 0 0 
0.004585435491721157 -0.003240159565054936 -0.0003346356627391262 -0.00839776658469597 -0.003757192978107402 -0.001932196130358688 -0.00120820158177661 
0 0 0 0 0 0 0 
0 0 0 0 0 0 0 
0.002893507846779746 -0.007092991068832879 -0.005600479003073247 -0.006789136044867889 -0.006301489695742851 -0.005197628973855863 -0.006676292695383041 
0 0 0 0 0 0 0 
0 0 0 0 0 0 0 
0.01843052274563767 -0.005207284902398981 -0.007879803070254855 -0.01248764082783003 -0.01767984606762069 -0.0149879956458204 -0.01572044668930824 
0 0 0 0 0 0 0 
0 0 0 0 0 0 0 
0.01428508540609189 -0.006169314222151933 -0.008472574536674531 -0.007781562751569298 -0.04949686614893717 -0.004865235490935997 -0.01412653854101587 
0 0 0 0 0 0 0 
0 0 0 0 0 0 0 
0.06469650765856512 -0.02704876390053148 -0.01214879779174054 -0.05267824357751211 -0.03720097886392296 -0.063384021617998 -0.0223075640917786 
0 0 0 0 0 0 0 
0 0 0 0 0 0 0 
-0.08086853652136868 -0.09346223282861245 -0.138351757209504 -0.008847930335167569 0.6346990614433187 -0.003364862888007714 -0.08410610304203742 
0 0 0 0 0 0 0 
0 0 0 0 0 0 0 
0.006085826279168348 -0.00101319640935987 -0.0001659946374911666 -0.002091470400841313 -0.00469562733036577 -0.005485330149521233 -0.001161296580854099 
0 0 0 0 0 0 0 
0 0 0 0 0 0 0 
0.002978861092670092 -0.0001413756347861081 -4.557883442001605e-05 -0.007220823763558289 -0.001339921141926911 -0.001852813307801649 -0.0004316827662501014 
0 0 0 0 0 0 0 
0 0 0 0 0 0 0 
0.640745107745451 -0.05969270432421954 -0.008269576962487321 -0.02444054355984772 -0.01910828587947743 -0.4005173623809297 -0.0112508660771352 
0 0 0 0 0 0 0 
0 0 0 0 0 0 0 
0.1045403374707797 -0.0274212314914896 -0.01931251255702662 -0.055622528026992 -0.008680550256121371 -0.0875704712161042 -0.01446307441204898 
0 0 0 0 0 0 0 
0 0 0 0 0 0 0 
0.006250888051527552 -4.503358228429377e-05 -0.0007840238922726299 -0.004962164002634748 -0.0009893427048686902 -0.008709686817158025 -0.0005907091723130968 
0 0 0 0 0 0 0 
0 0 0 0 0 0 0 
-1.001039098522415 1.973826984034022 -0.3724774130508486 0.1099764337212677 -0.5734511177526996 -0.6626270492318436 -0.2509801868132918 
0 0 0 0 0 0 0 
0 0 0 0 0 0 0 
0.001008462699743449 -0.002071139915788829 -0.00101051585985046 -0.002426579120993035 -0.003507014120265977 -0.001150739727783197 -0.002761698266538107 
0 0 0 0 0 0 0 
0 0 0 0 0 0 0 
0.7905923252117441 -0.09346223282861245 -0.138351757209504 -0.008847930335167569 -0.194458655695634 -0.003364862888007714 -0.08410610304203742 
0 0 0 0 0 0 0 
0 0 0 0 0 0 0 
0.001440735070697124 -0.0008942906116512525 -0.0005936890653573861 -0.001498851260967174 -0.000594678461409807 -0.002222458564134641 -0.0006059400413318394 
0 0 0 0 0 0 0 
0 0 0 0 0 0 0 
0.04100044924690009 -0.002913756185689631 -0.01304806646483473 -0.0004750420037491807 -0.04278078603079978 2.497961048295502e-05 -0.01696544912122961 
0 0 0 0 0 0 0 
0 0 0 0 0 0 0 
-0.4875822779596782 -0.2140794069397081 -0.02704665265425677 -0.3040086819359586 -0.04547552464864775 1.190181030715125 -0.03522677553247604 
0 0 0 0 0 0 0 
0 0 0 0 0 0 0 
0.09251231842310098 -0.02875720531068393 -0.07909805554798335 -0.008322562540807814 -0.06689009267756559 -0.005363763951061066 -0.03087830594832974 
0 0 0 0 0 0 0 
0 0 0 0 0 0 0 
-2.923998727031063 -2.827051030256059 -0.1067657073414829 3.655484689650623 3.410456157715036 -1.995464810332227 -0.1530617044527618 
0 0 0 0 0 0 0 
0 0 0 0 0 0 0 
0.02412875605075599 -0.01110855247472295 -0.001068844672091151 -0.005265522696018926 -0.005249507265340126 -0.01845121171166988 -0.003318790214941113 
0 0 0 0 0 0 0 
0 0 0 0 0 0 0 
0.009040105769339687 -0.002958799275363157 -0.0002851078018767086 -0.003941720676592358 -0.00250910881453982 -0.007202012047839209 -0.001335914153901997 
0 0 0 0 0 0 0 
0 0 0 0 0 0 0 
0.07886604878497276 -0.01667176494090521 -0.02521675193145629 -0.006178166930410671 -0.005892813561030196 -0.04924393238227525 -0.01179658804512782 
0 0 0 0 0 0 0 
0 0 0 0 0 0 0 
-0.3773581537808069 -0.422830805723225 2.213897514483261 -0.05092659601685461 -0.7428850325663944 -0.01986494290184279 -0.38383317491175 
0 0 0 0 0 0 0 
0 0 0 0 0 0 0 
0.009982046752712975 -0.001040185270244969 -0.0008249923402816762 -0.006378696532156045 -0.001493699864060961 -0.00165956958503141 -0.0002865209766144328 
0 0 0 0 0 0 0 
0 0 0 0 0 0 0 
-0.299352742988689 -0.2211660601589828 -0.02089321107769335 -0.05231921602413658 -0.01018465533935834 0.6906813712429076 -0.01692573192125831 
0 0 0 0 0 0 0 
0 0 0 0 0 0 0 
0.1075399386778151 -0.07690617919574842 -0.0879729793311685 -0.02655057568826055 -0.1203829335785721 -0.00936750429890083 -0.1004989548036287 
0 0 0 0 0 0 0 
0 0 0 0 0 0 0 
-1.171290664603641 0.2068014922399576 0.6481674384127472 1.786432904782778 -0.3351023522261084 -0.6635091292726532 -0.2346764599590197 
0 0 0 0 0 0 0 
0 0 0 0 0 0 0 
-0.2408605515001343 0.7275511523689165 -0.006144638193346548 -0.2095593036345771 -0.07908536288069193 -0.3620738731671518 -0.01085995355800606 
0 0 0 0 0 0 0 
0 0 0 0 0 0 0 
0.01148860457063906 -0.01257366128702645 -0.002234062274588533 -0.008801775938272749 -0.01291581377622518 -0.006038552092262639 -0.006777199914998023 
0 0 0 0 0 0 0 
0 0 0 0 0 0 0 
-1.281672862496299 1.400539807407653 1.282410815390449 -0.4280458049307382 -0.6079557427929096 -0.3982298836235067 -0.3034758662402124 
0 0 0 0 0 0 0 
0 0 0 0 0 0 0 
-0.1032886026020399 -0.01692040667231858 -0.4195184506703687 -0.001744997708490396 -0.08893703642761824 -0.009212064665754728 0.6905390925046448 
0 0 0 0 0 0 0 
0 0 0 0 0 0 0 
0.005052929389712905 -0.002070344260617886 -3.213607532442291e-05 -0.002240019657391095 -0.004235531086704723 -0.003575202225300519 -0.001078637445092054 
0 0 0 0 0 0 0 
0 0 0 0 0 0 0 
-0.5177158917520808 0.3085072485768247 1.287582618829701 -0.1233152191165914 -0.4250176344220373 -0.2077688310636183 -0.355208472942823 
0 0 0 0 0 0 0 
0 0 0 0 0 0 0 
0.002978861092670092 -0.0001413756347861081 -4.557883442001605e-05 -0.007220823763558289 -0.001339921141926911 -0.001852813307801649 -0.0004316827662501014 
0 0 0 0 0 0 0 
0 0 0 0 0 0 0 
0.4259968198798291 -0.04414866789454439 -0.04439052590175845 -0.111169564814967 -0.03324201193618838 -0.2088989099687359 -0.02978266619065079 
0 0 0 0 0 0 0 
0 0 0 0 0 0 0 
0.02259797563431984 -0.00802034230390695 -0.004232617728361756 -0.01479250415281065 -0.02270784465361027 -0.009115001244863294 -0.0123164815977758 
0 0 0 0 0 0 0 
0 0 0 0 0 0 0 
0.04878407581677471 -0.006954446255566517 -0.004199084440757317 -0.07193074743524235 -0.03567045532655654 -0.03155228444771756 -0.01580376153987059 
0 0 0 0 0 0 0 
0 0 0 0 0 0 0 
0.0192575584855249 -0.005361203209251417 -0.01683219811260782 -0.006702535086528238 -0.02891068817234333 -0.01159517967072034 -0.02433645806260271 
0 0 0 0 0 0 0 
0 0 0 0 0 0 0 
0.01176587541572515 -0.006427138197599618 -0.00415422840672386 -0.005262614181602406 -0.007861141284696829 -0.006479548119207914 -0.006671844357401539 
0 0 0 0 0 0 0 
0 0 0 0 0 0 0 
0.009797735391027363 -0.005070836525719592 -0.004424363682885376 -0.006045219452089314 -0.006515108572433581 -0.005611658154203369 -0.008075435029001526 
0 0 0 0 0 0 0 
0 0 0 0 0 0 0 
0.001744720552522254 -0.001761512769734799 -0.0002791320806866873 -0.001899055053988358 -0.0005789269561931385 -0.0007433756125627182 -0.001262699098331795 
0 0 0 0 0 0 0 
0 0 0 0 0 0 0 
0.008547551396534413 -0.0004534629799621213 -0.0005438704493675795 -0.0140311205813274 -0.002238945623446467 -0.004139094206551243 -0.0004858068673192576 
0 0 0 0 0 0 0 
0 0 0 0 0 0 0 
0.005583418795302149 -0.002503093111308426 -0.00289150368719973 -0.0007407647557283402 -0.001819539823366935 -0.001295075828611099 -0.001504255123098368 
0 0 0 0 0 0 0 
0 0 0 0 0 0 0 
0.3234014474975049 -0.01202023355415109 -0.001435974923695496 -0.1083984026619465 -0.008609873863658701 -0.09636885126244397 -0.002544077189465575 
0 0 0 0 0 0 0 
0 0 0 0 0 0 0 
0.4214596321331763 -0.07337356968892764 -0.001069725331566135 -0.03870702961994133 -0.02555049280852691 -0.1584973308149664 -0.006140049363155761 
0 0 0 0 0 0 0 
0 0 0 0 0 0 0 
1.079745558175178 -0.339816382487476 -0.02683721210076816 0.002959623597583426 -0.07912311224798015 -0.5793807596707643 -0.03848251082114733 
0 0 0 0 0 0 0 
0 0 0 0 0 0 0 
0.107857413441285 -0.1033009378633858 -0.04622855535742154 -0.1179223586959572 -0.07973655554518029 -0.08531044888948873 -0.07411503934003905 
0 0 0 0 0 0 0 
0 0 0 0 0 0 0 
0.04935835847679163 -0.03465852116019892 -0.01081207376525262 -0.02591031780731181 -0.01979881664342582 -0.02457098447985396 -0.01110918624531175 
0 0 0 0 0 0 0 
0 0 0 0 0 0 0 
0.7905923252117441 -0.09346223282861245 -0.138351757209504 -0.008847930335167569 -0.194458655695634 -0.003364862888007714 -0.08410610304203742 
0 0 0 0 0 0 0 
0 0 0 0 0 0 0 
0.00109049141760464 -0.001584428799330126 -0.001315197898511584 -0.001192476250637445 -0.001888648140915038 -0.001477707883731804 -0.002186745078836828 
0 0 0 0 0 0 0 
0 0 0 0 0 0 0 
0.03636872739173524 -0.009604981404757804 -0.0075389394280535 -0.007469558138105826 -0.01585100226519003 -0.02932368620774963 -0.008648496527521801 
0 0 0 0 0 0 0 
0 0 0 0 0 0 0 
0.002970577280542941 -0.006725585133565832 -0.00483730678031659 -0.006983778402297385 -0.00527599469728871 -0.007819231079231413 -0.01091712425720033 
0 0 0 0 0 0 0 
0 0 0 0 0 0 0 
0.01762435518957314 -0.001346998128303947 -0.001982568463674123 -0.003362852962168414 -0.006063279327186491 -0.02689856866631645 -0.004425339906402794 
0 0 0 0 0 0 0 
0 0 0 0 0 0 0 
0.004201924479280523 -0.002041383439694569 -0.000262961947168564 -0.002530197137921786 -0.005469286415094293 -0.004252077454667783 -0.002211063041969029 
0 0 0 0 0 0 0 
0 0 0 0 0 0 0 
-0.4657760095279887 1.188216028718733 -0.2457403257326161 -0.217569854643599 -0.3326635659186458 0.3574419683015552 -0.17843195994431 
0 0 0 0 0 0 0 
0 0 0 0 0 0 0 
0.4996523971198449 -0.3287780424006878 -0.006707405167352389 -0.06237477227534122 -0.02961011538090884 -0.0332808687638475 -0.003858190209754382 
0 0 0 0 0 0 0 
0 0 0 0 0 0 0 
0.004551978713858144 -0.0006732585412669919 -0.001130278370293804 -0.007971145197218579 -0.008551546242694519 -0.004041765625682173 -0.01275490987176946 
0 0 0 0 0 0 0 
0 0 0 0 0 0 0 
0.01117363729823471 -0.001973114597216984 -0.003286725656150418 -0.001247780195194193 -0.001441832837260925 -0.01562634855852794 -0.002586035330712326 
0 0 0 0 0 0 0 
0 0 0 0 0 0 0 
0.004119512266540313 -0.0005113137402946061 -0.0001873112442007829 -0.0007918016489145426 -0.001794987916166678 -0.007826538245918694 -0.001794099986084458 
0 0 0 0 0 0 0 
0 0 0 0 0 0 0 
0.002521920233837664 -0.003536897403088182 -0.00366249068436961 -0.004395488709635353 -0.00569555471118875 -0.002529238471288549 -0.005110780450098783 
0 0 0 0 0 0 0 
0 0 0 0 0 0 0 
0.7536380276574199 -0.01692040667231858 -0.4195184506703687 -0.001744997708490396 -0.08893703642761824 -0.009212064665754728 -0.159764856501737 
0 0 0 0 0 0 0 
0 0 0 0 0 0 0 
0.01076873030617579 -0.004774486883447851 -0.006561441936728703 -0.01355096708732901 -0.01072955608319772 -0.009644450286521384 -0.005642467956262765 
0 0 0 0 0 0 0 
0 0 0 0 0 0 0 
0.003767003607904411 -0.0007558453995175423 -0.006967901848293735 -0.003405971651938947 -0.002413623611456143 -0.00916468258363227 -0.004379471994172563 
0 0 0 0 0 0 0 
0 0 0 0 0 0 0 
0.2800705346050076 -0.02726413322726008 -0.006651991338372771 -0.04179906790181594 -0.007296374721911773 -0.1587375824275823 -0.01059334172603441 
0 0 0 0 0 0 0 
0 0 0 0 0 0 0 
0.008276543173196996 -0.01373278350887683 -0.008475479088685942 -0.006564935090068023 -0.008075846190527258 -0.004856294613363538 -0.009083028028066112 
0 0 0 0 0 0 0 
0 0 0 0 0 0 0 
0.008201685439500268 -0.002862360260833603 -8.617936610424919e-05 -0.004432765516972983 -0.007733540999901473 -0.006690217523861937 -0.00196629078940173 
0 0 0 0 0 0 0 
0 0 0 0 0 0 0 
0.363323981209859 -0.005841931699092901 -0.003848950305801154 -0.1022304172163327 -0.009595900336322582 -0.1334159360877486 -0.002761550869457548 
0 0 0 0 0 0 0 
0 0 0 0 0 0 0 
0.007265618527702218 -0.01012129412219201 -0.0007426099725657434 -0.007357247892550607 -0.001474967006232811 -0.01075367363062755 -0.001711210187026998 
0 0 0 0 0 0 0 
0 0 0 0 0 0 0 
0.005052929389712905 -0.002070344260617886 -3.213607532442291e-05 -0.002240019657391095 -0.004235531086704723 -0.003575202225300519 -0.001078637445092054 
0 0 0 0 0 0 0 
0 0 0 0 0 0 0 
0.002913977548464682 -0.004581829116507724 -0.0006378947361203723 -0.00333873706760675 -0.002813497843044634 -0.001436943036865712 -0.001783594104266322 
0 0 0 0 0 0 0 
0 0 0 0 0 0 0 
0.001818940590117853 -0.005041645605095299 -0.001254496153232068 -0.004897558389033075 -0.002271768449391687 -0.004434958728609233 -0.003809354147132298 
0 0 0 0 0 0 0 
0 0 0 0 0 0 0 
0.8155716907176144 -0.5173284771845449 -0.002154799441732261 -0.1645081727811099 -0.003742337469685306 -0.2075820718168194 -0.003586811803626272 
0 0 0 0 0 0 0 
0 0 0 0 0 0 0 
0.402468259616337 -0.1339804879735358 -0.004161548888956362 -0.05838082718555764 -0.001485963782643155 -0.1343780009764401 -0.002331207947778514 
0 0 0 0 0 0 0 
0 0 0 0 0 0 0 
0.01478803837995924 -0.0124577399342445 -0.0005544531184854159 -0.006307155288591198 -0.00389722474758215 -0.005853542130987838 -0.001159336042613059 
0 0 0 0 0 0 0 
0 0 0 0 0 0 0 
0.004798813662055082 -0.0006758324924882135 -0.0004234253784801892 -0.002159258208684765 -0.005136584841170424 -0.005036323788926994 -0.004156956067912925 
0 0 0 0 0 0 0 
0 0 0 0 0 0 0 
0.002622144788099507 -0.001685297783286127 -0.001758399859339948 -0.002146475117679622 -0.003017826378146169 -0.002173350477119575 -0.002286009601240128 
0 0 0 0 0 0 0 
0 0 0 0 0 0 0 
0.007443419031330951 -0.005205983070236357 -0.004850319345973632 -0.004865473190556617 -0.009255888725978595 -0.004307601633019643 -0.007786772046938522 
0 0 0 0 0 0 0 
0 0 0 0 0 0 0 
-0.3119497957179695 -0.2984521640766381 -0.001078611162662756 -0.08805546394128513 -0.001875481951661468 0.7434063620147511 -0.001796608883339119 
0 0 0 0 0 0 0 
0 0 0 0 0 0 0 
0.004116510677589758 -0.0003659559910743138 -0.0004620400276012703 -0.002483477614584216 -0.004667107340740899 -0.003715850232208968 -0.002490920083030749 
0 0 0 0 0 0 0 
0 0 0 0 0 0 0 
0.02558180079017731 -0.01701195413719828 -0.03499902798002268 -0.0103752356304865 -0.03036228885376145 -0.01159062586586788 -0.04132926420938304 
0 0 0 0 0 0 0 
0 0 0 0 0 0 0 
0.004157013070970596 -0.001222300853427328 -0.001020280474852433 -0.001882055485763173 -0.002127599825693849 -0.005281773587325719 -0.00149567177307113 
0 0 0 0 0 0 0 
0 0 0 0 0 0 0 
0.02864060466220263 -0.01812128475807729 -0.01540579926303996 -0.01952789875011736 -0.01536869581579241 -0.04401710998871818 -0.01596060171310909 
0 0 0 0 0 0 0 
0 0 0 0 0 0 0 
0.009293677705001056 -0.001572172444210383 -0.006679736147873401 -0.003582555546443389 -0.006524000752871663 -0.0155462426565148 -0.007046681943011426 
0 0 0 0 0 0 0 
0 0 0 0 0 0 0 
-0.2937446703956455 -0.4947893606565009 -1.331257798904501 -0.1356871581904762 2.66354359943107 -0.229101626190493 -0.6687190360590956 
0 0 0 0 0 0 0 
0 0 0 0 0 0 0 
0.4339610646097234 -0.1845156205950975 -0.02362282559981808 -0.08303220801109271 -0.03150513446650752 -0.251858237877313 -0.02824023773037899 
0 0 0 0 0 0 0 
0 0 0 0 0 0 0 
0.06815189918154119 -0.007873802627947107 -0.02540519671947191 -0.00926994633189528 -0.04317816404358473 -0.05690116960719005 -0.02969492635783835 
0 0 0 0 0 0 0 
0 0 0 0 0 0 0 
-0.1323065891211984 0.3906470662876722 -0.00179169385386037 -0.114665242964785 -0.01384320401740835 -0.2116845266774532 -0.00385836282108911 
0 0 0 0 0 0 0 
0 0 0 0 0 0 0 
0.0163373497104221 -0.006515377917844884 -0.006868182737522652 -0.00929853602568379 -0.007836063066809193 -0.005841766598869225 -0.004330614759328706 
0 0 0 0 0 0 0 
0 0 0 0 0 0 0 
0.4646689021078041 -0.03926563617180994 -0.002583487306139043 -0.03621630228693237 -0.02808179993950341 -0.2111217547649661 -0.006571428052412413 
0 0 0 0 0 0 0 
0 0 0 0 0 0 0 
0.003704196511350338 -0.003259542725206684 -0.0006087637051134162 -0.001447380900556888 -0.001057635294876742 -0.001422176712033682 -0.0009929868033197622 
0 0 0 0 0 0 0 
0 0 0 0 0 0 0 
0.002139748768317638 -0.0006912702218013544 -0.0004934430323946485 -0.002467144286311396 -0.001199934244269275 -0.003445471213886555 -0.00189894600027126 
0 0 0 0 0 0 0 
0 0 0 0 0 0 0 
0.01317375661369278 -0.0036116950535242 -0.0009738600425337832 -0.01159353361926181 -0.01207098100784051 -0.009298847781243151 -0.004469604433374401 
0 0 0 0 0 0 0 
0 0 0 0 0 0 0 
-0.1430130869958979 -0.01041309635948701 0.3837418720473916 -0.00194622849443898 -0.08653568607858413 -0.009118048338399552 -0.1216240479796356 
0 0 0 0 0 0 0 
0 0 0 0 0 0 0 
-0.7806044110779168 1.235226551004151 -0.02385300521488876 -0.3124009091092713 -0.04567340214345986 -0.3750203495645928 -0.02187261210465954 
0 0 0 0 0 0 0 
0 0 0 0 0 0 0 
0.009334239895267991 -0.009496928848922281 -0.009059458613950503 -0.003390070665860578 -0.006289178926623764 -0.002918631787615067 -0.002462739695746042 
0 0 0 0 0 0 0 
0 0 0 0 0 0 0 
0.001908787690704026 -0.001354099530551292 -0.001020507743770238 -0.003900321301387793 -0.002200836773629472 -0.001693773628072302 -0.003590191240533891 
0 0 0 0 0 0 0 
0 0 0 0 0 0 0 
0.01276197286621101 -0.009058592006520108 -0.006967492110620141 -0.01232723465855686 -0.01260276811993193 -0.009458536850378651 -0.007653887155078547 
0 0 0 0 0 0 0 
0 0 0 0 0 0 0 
0.002978861092670092 -0.0001413756347861081 -4.557883442001605e-05 -0.007220823763558289 -0.001339921141926911 -0.001852813307801649 -0.0004316827662501014 
0 0 0 0 0 0 0 
0 0 0 0 0 0 0 
-0.3656301126223214 -0.07529632489812244 -0.006377356262209068 -0.01974801109604511 -0.0006865339358940814 0.5717642727961888 -0.003998007901432153 
0 0 0 0 0 0 0 
0 0 0 0 0 0 0 
0.002231071462156952 -0.003677660608827924 -0.004389235719367061 -0.002936091327387761 -0.004541844116481402 -0.002739174413310268 -0.006432540082628703 
0 0 0 0 0 0 0 
0 0 0 0 0 0 0 
0.004116510677589758 -0.0003659559910743138 -0.0004620400276012703 -0.002483477614584216 -0.004667107340740899 -0.003715850232208968 -0.002490920083030749 
0 0 0 0 0 0 0 
0 0 0 0 0 0 0 
0.01048290655184386 -0.0009894534385263009 -0.0005494290981967944 -0.001540909125527709 -0.003045164029493885 -0.01619651377078143 -0.001414049568782524 
0 0 0 0 0 0 0 
0 0 0 0 0 0 0 
0.009982046752712975 -0.001040185270244969 -0.0008249923402816762 -0.006378696532156045 -0.001493699864060961 -0.00165956958503141 -0.0002865209766144328 
0 0 0 0 0 0 0 
0 0 0 0 0 0 0 
0.002418863957777325 -9.750360993380581e-06 -0.0002773820840665691 -0.002560225236664969 -0.0005835277263315225 -0.004161767695143199 -0.000742116664448082 
0 0 0 0 0 0 0 
0 0 0 0 0 0 0 
0.006160848571065195 -0.0006611493952775587 -0.0001117140041874374 -0.009919973000378682 -0.003962004602477011 -0.005382746532585995 -0.001908291567824719 
0 0 0 0 0 0 0 
0 0 0 0 0 0 0 
-0.08086853652136868 0.7773605899476763 -0.138351757209504 -0.008847930335167569 -0.194458655695634 -0.003364862888007714 -0.08410610304203742 
0 0 0 0 0 0 0 
0 0 0 0 0 0 0 
0.01109146646688391 -0.004111567210525821 -0.0006506267019199417 -0.008307686351507023 -0.01265458600073414 -0.007375393522603467 -0.006965960441260615 
0 0 0 0 0 0 0 
0 0 0 0 0 0 0 
0.00334673297320147 -0.003023955736555559 -0.002649089551536144 -0.005381392439028422 -0.002393692038973627 -0.003470815215662744 -0.00274949021753015 
0 0 0 0 0 0 0 
0 0 0 0 0 0 0 
0.002200840710173438 -0.0006277001391033433 -5.794554036173325e-05 -0.001640431607753319 -0.001325343612609682 -0.00228464520937413 -0.0004624465016080805 
0 0 0 0 0 0 0 
0 0 0 0 0 0 0 
0.1059690859685437 -0.01763669949211849 -0.08213276399025078 -0.009244636992744739 -0.06827354587526611 -0.004981554638457506 -0.03655470350387389 
0 0 0 0 0 0 0 
0 0 0 0 0 0 0 
0.02663222767446571 -0.01281645796167792 -0.006567091980136657 -0.01014894303301062 -0.01483952930508404 -0.01881937073451788 -0.007023630853002605 
0 0 0 0 0 0 0 
0 0 0 0 0 0 0 
0.04262967426171376 -0.04087272774397707 -0.006855764186099799 -0.01846030210146913 -0.01646255210583798 -0.01499479448918156 -0.01133476504566664 
0 0 0 0 0 0 0 
0 0 0 0 0 0 0 
0.6937791296780181 -0.01041309635948701 -0.4149759367903354 -0.00194622849443898 -0.08653568607858413 -0.009118048338399552 -0.1216240479796356 
0 0 0 0 0 0 0 
0 0 0 0 0 0 0 
0.01466820450085528 -0.03242265123325171 -0.0003269629979702494 -0.004868249297200382 -0.001965978075480451 -0.001550122243217776 -0.0007707764474149522 
0 0 0 0 0 0 0 
0 0 0 0 0 0 0 
0.01148121354803617 -0.0005947708802027413 -0.0005894395457474515 -0.02105654631906924 -0.003573416708935302 -0.005977013495078306 -0.0009171024431506147 
0 0 0 0 0 0 0 
0 0 0 0 0 0 0 
-0.1805789885230671 -0.05969270432421954 -0.008269576962487321 0.9342261389021632 -0.01910828587947743 -0.4005173623809297 -0.0112508660771352 
0 0 0 0 0 0 0 
0 0 0 0 0 0 0 
0.003998826081965585 -0.0004180678831681363 -0.0005749067707582626 -0.008029070702695252 -0.001235921697307054 -0.002693001281684953 -0.0003491518537122578 
0 0 0 0 0 0 0 
0 0 0 0 0 0 0 
0.03310496135654805 -0.006097093595461952 -0.001299382369898174 -0.02349823347430435 -0.00556164656131211 -0.01667475116802254 -0.002881878808949488 
0 0 0 0 0 0 0 
0 0 0 0 0 0 0 
-0.2722019926260772 -0.1441078854003603 -0.1399524543278967 -0.2553940068875396 0.6090521474997238 0.689676274664611 -0.08594359137664159 
0 0 0 0 0 0 0 
0 0 0 0 0 0 0 
-0.08086853652136868 0.7773605899476763 -0.138351757209504 -0.008847930335167569 -0.194458655695634 -0.003364862888007714 -0.08410610304203742 
0 0 0 0 0 0 0 
0 0 0 0 0 0 0 
0.007666819951704067 -0.0004088803234327783 -0.0007124167331437482 -0.009188137308565703 -0.006187061838497982 -0.006600402649697308 -0.002966295541026762 
0 0 0 0 0 0 0 
0 0 0 0 0 0 0 
0.17485644753493 -0.05376572311371795 -0.01440197360085659 -0.1594096041662892 -0.1118846799477528 -0.1189765733001851 -0.06918194228925634 
0 0 0 0 0 0 0 
0 0 0 0 0 0 0 
0.01151746948961844 -0.002589237863729297 -0.0004966947715001431 -0.005573109643941738 -0.006593545346201814 -0.01541859662691659 -0.003607015253693081 
0 0 0 0 0 0 0 
0 0 0 0 0 0 0 
0.4801615313106871 -0.2984521640766381 -0.001078611162662756 -0.08805546394128513 -0.001875481951661468 -0.1119356241716088 -0.001796608883339119 
0 0 0 0 0 0 0 
0 0 0 0 0 0 0 
0.001614395990296064 -0.0030987349450146 -0.0002891778820934619 -0.001192866458032689 -0.002422865880037962 -7.92015236058858e-05 -0.000777105708854704 
0 0 0 0 0 0 0 
0 0 0 0 0 0 0 
-0.1926231709104836 -0.03334663256193684 0.6419421823992734 -0.003484086150916073 -0.1666224871868584 -0.01826320865172753 -0.2872067423726061 
0 0 0 0 0 0 0 
0 0 0 0 0 0 0 
0.002507922268950562 -0.002204954429185721 -0.00238932759691509 -0.002180389872983102 -0.00299484435880964 -0.001575015515269172 -0.002614208560181375 
0 0 0 0 0 0 0 
0 0 0 0 0 0 0 
0.01539041597659198 -0.01531764990334618 -0.008802134298299447 -0.01377751693673962 -0.01848687921893187 -0.01129508994330931 -0.01273917139621012 
0 0 0 0 0 0 0 
0 0 0 0 0 0 0 
0.002472651886333203 -0.001506814856441144 -9.199208953622282e-05 -0.001802455919962583 -0.0001892839976400712 -0.001901742908230577 -0.0003352641444867562 
0 0 0 0 0 0 0 
0 0 0 0 0 0 0 
0.01945445710412036 -0.007020959624217437 -0.02316199596187641 -0.009034305319173094 -0.03848760797681671 -0.002517852230387807 -0.03452577764929952 
0 0 0 0 0 0 0 
0 0 0 0 0 0 0 
0.00875912403496827 -0.006900295538745794 -0.002204677124663057 -0.005918386644786278 -0.003733399958786382 -0.004448297999854183 -0.003499466246493479 
0 0 0 0 0 0 0 
0 0 0 0 0 0 0 
-0.7424118467778899 -0.6594475305537306 -2.080435418137917 -0.5804985835787808 -1.107691141951823 -1.034877886616141 0.7350866223251284 
0 0 0 0 0 0 0 
0 0 0 0 0 0 0 
0.00357525324377804 -4.296252472730356e-05 -0.0002506034476504137 -0.006736888106926828 -0.001532946368861564 -0.002905362119478942 -0.0004776146872207569 
0 0 0 0 0 0 0 
0 0 0 0 0 0 0 
-0.1454736961308115 0.550936226088783 -0.001394439332181499 -0.1059786567095401 -0.04930345308385101 -0.2252908556154085 -0.005099195956144615 
0 0 0 0 0 0 0 
0 0 0 0 0 0 0 
-0.08086853652136868 -0.09346223282861245 0.7176973288554823 -0.008847930335167569 -0.194458655695634 -0.003364862888007714 -0.08410610304203742 
0 0 0 0 0 0 0 
0 0 0 0 0 0 0 
0.0031988720405223 -0.0005198879284576937 -6.616093335296687e-05 -0.002737355214912706 -0.002628180687751604 -0.003542474815023056 -0.001477723700588296 
0 0 0 0 0 0 0 
0 0 0 0 0 0 0 
0.01459298024393874 -0.005453553685434281 -0.002515553090870746 -0.01088744190984482 -0.01402539392961424 -0.009486356478897529 -0.004891074686347554 
0 0 0 0 0 0 0 
0 0 0 0 0 0 0 
-0.1454736961308115 0.550936226088783 -0.001394439332181499 -0.1059786567095401 -0.04930345308385101 -0.2252908556154085 -0.005099195956144615 
0 0 0 0 0 0 0 
0 0 0 0 0 0 0 
0.03666199278753778 -0.005413026735965926 -0.001818773225618482 -0.01088144948388407 -0.009390106138861669 -0.03794420769646897 -0.003817947241963685 
0 0 0 0 0 0 0 
0 0 0 0 0 0 0 
0.07708260954982293 -0.07723260768659423 -0.05712035139309094 -0.02411352553867925 -0.04352658247406532 -0.02335348956168682 -0.02050392904214134 
0 0 0 0 0 0 0 
0 0 0 0 0 0 0 
-0.2089236625743807 -0.01078534693426812 -0.2174406901550584 -0.002635703814670103 0.7375765335088373 -0.003059888322931473 -0.1042912863166221 
0 0 0 0 0 0 0 
0 0 0 0 0 0 0 
0.6620186948831644 -0.1198529048109921 -0.01055803084874609 -0.02679178601257067 -0.005116936657962444 -0.3828119230908575 -0.008532900371886244 
0 0 0 0 0 0 0 
0 0 0 0 0 0 0 
0.004710006026365504 -0.002642104520616047 -0.0009117052739434565 -0.004920656582789754 -0.007209455601462558 -0.003525309534894253 -0.004877494197445559 
0 0 0 0 0 0 0 
0 0 0 0 0 0 0 
-0.1651709670038156 -0.1198529048109921 -0.01055803084874609 -0.02679178601257067 -0.005116936657962444 0.4059621314430608 -0.008532900371886244 
0 0 0 0 0 0 0 
0 0 0 0 0 0 0 
0.05853430440646529 -0.001732021933981896 -0.06288118439135271 -0.01990748695268781 -0.04805759530090276 -0.01254722515003769 -0.05783075624841919 
0 0 0 0 0 0 0 
0 0 0 0 0 0 0 
-0.2947343993737846 0.4653176866365043 -0.006707405167352389 -0.06237477227534122 -0.02961011538090884 -0.0332808687638475 -0.003858190209754382 
0 0 0 0 0 0 0 
0 0 0 0 0 0 0 
0.6585007253111669 -0.04301695791391015 -0.1541212713094279 -0.04707462739330281 -0.06686658268344674 -0.1195246015861902 -0.06019083276604283 
0 0 0 0 0 0 0 
0 0 0 0 0 0 0 
0.004372947125804358 -0.001979799874577049 -0.002472573417813918 -0.002950896292635571 -0.004461086570047716 -0.004393835132953308 -0.005643085512090888 
0 0 0 0 0 0 0 
0 0 0 0 0 0 0 
-0.0993528572819516 -0.01325629380720346 0.2968187147033778 -0.002772414136839347 -0.1713882084160014 -0.01292586132357294 -0.1503522943386008 
0 0 0 0 0 0 0 
0 0 0 0 0 0 0 
0.002978861092670092 -0.0001413756347861081 -4.557883442001605e-05 -0.007220823763558289 -0.001339921141926911 -0.001852813307801649 -0.0004316827662501014 
0 0 0 0 0 0 0 
0 0 0 0 0 0 0 
-0.2118864373259279 -0.05864299774577515 -0.002064697462497071 -0.2495407481345405 -0.01746413530305323 0.6949677549176745 -0.002150659923657097 
0 0 0 0 0 0 0 
0 0 0 0 0 0 0 
0.04191545326745939 -0.03597756976185912 -0.03935381513526996 -0.03117544826059991 -0.04992841494092848 -0.02371341132585299 -0.06103203713544159 
0 0 0 0 0 0 0 
0 0 0 0 0 0 0 
0.03746325251313153 -0.009417052793668858 -0.00588093052103736 -0.031026586010595 -0.01477537306872602 -0.01440493131702359 -0.005612805616666532 
0 0 0 0 0 0 0 
0 0 0 0 0 0 0 
-0.1032886026020399 -0.01692040667231858 0.3793246378442056 -0.001744997708490396 -0.08893703642761824 -0.009212064665754728 -0.159764856501737 
0 0 0 0 0 0 0 
0 0 0 0 0 0 0 
0.005738373955249979 -0.004733513055710323 -6.573529579881987e-05 -0.002467615043113679 -0.001031430902203864 -0.003159978486099551 -0.0008072231941937066 
0 0 0 0 0 0 0 
0 0 0 0 0 0 0 
0.009261801012820189 -0.003671379831241741 -0.004484501635040405 -0.002059787305950288 -0.002105090265615469 -0.006782006315334087 -0.003301041263218436 
0 0 0 0 0 0 0 
0 0 0 0 0 0 0 
-0.3082035624402598 1.33509951687607 -0.1428536129829355 -0.2082155009973205 -0.2784352013133829 -0.3752796814145558 -0.0944900134317354 
0 0 0 0 0 0 0 
0 0 0 0 0 0 0 
-0.3119497957179695 0.4988848905195271 -0.001078611162662756 -0.08805546394128513 -0.001875481951661468 -0.1119356241716088 -0.001796608883339119 
0 0 0 0 0 0 0 
0 0 0 0 0 0 0 
0.006085826279168348 -0.00101319640935987 -0.0001659946374911666 -0.002091470400841313 -0.00469562733036577 -0.005485330149521233 -0.001161296580854099 
0 0 0 0 0 0 0 
0 0 0 0 0 0 0 
0.03879737386041368 -0.003723199141389214 -0.0679865689216662 -0.002408745765439405 -0.03013775676904157 -0.004286000716096821 -0.01528343216034663 
0 0 0 0 0 0 0 
0 0 0 0 0 0 0 
0.002978861092670092 -0.0001413756347861081 -4.557883442001605e-05 -0.007220823763558289 -0.001339921141926911 -0.001852813307801649 -0.0004316827662501014 
0 0 0 0 0 0 0 
0 0 0 0 0 0 0 
0.01233134308860545 -0.006832933853142752 -0.005852822039207703 -0.003449924516113151 -0.01041381976458937 -0.001558043918875968 -0.004768527304929781 
0 0 0 0 0 0 0 
0 0 0 0 0 0 0 
0.02583334765713214 -0.03047050560277828 -0.01525198820539904 -0.02211380701461008 -0.02826691342109718 -0.01414009545514955 -0.0251033670685659 
0 0 0 0 0 0 0 
0 0 0 0 0 0 0 
0.00357525324377804 -4.296252472730356e-05 -0.0002506034476504137 -0.006736888106926828 -0.001532946368861564 -0.002905362119478942 -0.0004776146872207569 
0 0 0 0 0 0 0 
0 0 0 0 0 0 0 
-0.366012683936864 0.7216737674839728 0.7992459540879187 -0.01420709872974205 -0.3641502758059825 -0.01533364987046 -0.2982342880401854 
0 0 0 0 0 0 0 
0 0 0 0 0 0 0 
0.01922665275609765 -0.03252539012957123 -0.01488106858005753 -0.004959442983038651 -0.00926232168014637 -0.00146476891832558 -0.009967347824995525 
0 0 0 0 0 0 0 
0 0 0 0 0 0 0 
0.01080198650869251 -0.0007526503055114729 -0.001035221796943352 -0.01913335547259307 -0.003735313041737265 -0.006304980723932814 -0.001478060575179034 
0 0 0 0 0 0 0 
0 0 0 0 0 0 0 
0.004566110174651091 -0.001651212578792965 -0.005409495624451375 -0.001581351926207211 -0.001964355661469146 -0.006563732308911325 -0.00277460123377169 
0 0 0 0 0 0 0 
0 0 0 0 0 0 0 
0.007271418294601639 -0.0003582432464008717 -0.001434750120487874 -0.001827504460503639 -0.003034421993638456 -0.01103091702485392 -0.003019651899322577 
0 0 0 0 0 0 0 
0 0 0 0 0 0 0 
0.003531921502543589 -0.002453538048899138 -0.0004653656064312719 -0.00202203695179472 -0.001921030076887705 -0.003455782938013689 -0.001394938979831287 
0 0 0 0 0 0 0 
0 0 0 0 0 0 0 
0.8486114927676299 -0.5066247079411339 -0.02929375886624523 -0.2096827872159228 -0.01882440681411033 -0.3830809555832073 -0.02652903232112575 
0 0 0 0 0 0 0 
0 0 0 0 0 0 0 
1.769818995631968 -0.6875022001990162 -0.2690085951403464 -0.2118451538406103 -0.3745753085175673 -0.3919959878561097 -0.1708455699549771 
0 0 0 0 0 0 0 
0 0 0 0 0 0 0 
0.01052860160749947 -0.005579132716469946 -0.0008356658238618917 -0.003749316659024111 -0.002241887364566531 -0.006351250895702957 -0.001865510545656113 
0 0 0 0 0 0 0 
0 0 0 0 0 0 0 
0.005738373955249979 -0.004733513055710323 -6.573529579881987e-05 -0.002467615043113679 -0.001031430902203864 -0.003159978486099551 -0.0008072231941937066 
0 0 0 0 0 0 0 
0 0 0 0 0 0 0 
0.004157013070970596 -0.001222300853427328 -0.001020280474852433 -0.001882055485763173 -0.002127599825693849 -0.005281773587325719 -0.00149567177307113 
0 0 0 0 0 0 0 
0 0 0 0 0 0 0 
0.02825269176229567 -0.01569490611539555 -0.008032629128831672 -0.03390157502858655 -0.01590701312193539 -0.02111524212141608 -0.01010744619785708 
0 0 0 0 0 0 0 
0 0 0 0 0 0 0 
0.001252069439894666 -0.001853382524394216 -0.0007332979185547381 -0.002271663032812291 -0.003038262658435589 -0.001167107177030401 -0.00256476561115237 
0 0 0 0 0 0 0 
0 0 0 0 0 0 0 
0.0008588464218591082 -0.0007571906369158754 -0.0005106770648012095 -0.00248792445895909 -0.001667171378773521 -0.0009502233702066915 -0.001684824457549995 
0 0 0 0 0 0 0 
0 0 0 0 0 0 0 
-1.032779415353099 2.24287376726287 0.4077140982386794 -0.2275963552717576 -0.1585976937421507 -0.7378190487121303 -0.1812154969541178 
0 0 0 0 0 0 0 
0 0 0 0 0 0 0 
0.008233432709202411 -0.009803390716890818 -0.002995624501454037 -0.004683534037312485 -0.008957090938890407 -0.001118602977193821 -0.002505564570573107 
0 0 0 0 0 0 0 
0 0 0 0 0 0 0 
-0.3344432115599501 -0.1081649074323942 -0.01889637965707172 0.92722905160514 -0.02172121809817931 -0.06787883246602518 -0.01019514934379393 
0 0 0 0 0 0 0 
0 0 0 0 0 0 0 
-0.1032886026020399 -0.01692040667231858 0.3793246378442056 -0.001744997708490396 -0.08893703642761824 -0.009212064665754728 -0.159764856501737 
0 0 0 0 0 0 0 
0 0 0 0 0 0 0 
0.00686745652801888 -0.002334066073539705 -0.0002271826092752289 -0.002308386206153117 -0.001186743462595741 -0.00494231482375504 -0.0008742180418129441 
0 0 0 0 0 0 0 
0 0 0 0 0 0 0 
0.001440735070697124 -0.0008942906116512525 -0.0005936890653573861 -0.001498851260967174 -0.000594678461409807 -0.002222458564134641 -0.0006059400413318394 
0 0 0 0 0 0 0 
0 0 0 0 0 0 0 
0.0157519892577644 -0.001673716012384461 -0.0006058137029787431 -0.001385400247571837 -0.003152444410279719 -0.01621709063894231 -0.002012667322842035 
0 0 0 0 0 0 0 
0 0 0 0 0 0 0 
0.006964547986938832 -0.001586541483653269 -0.0001617640862049423 -0.001823171253891502 -0.005127505265400026 -0.007439684432634678 -0.00195014614206872 
0 0 0 0 0 0 0 
0 0 0 0 0 0 0 
0.7630334519975476 -0.0216608141749587 -0.28699711290435 -0.003693813618162432 -0.1534095232174488 -0.007322319425937973 -0.1817552599770411 
0 0 0 0 0 0 0 
0 0 0 0 0 0 0 
-0.4548765057385293 1.404087381656372 -0.005552263083053753 -0.3430301178392605 -0.1768345886603485 -0.6517337040577991 -0.02010359653595576 
0 0 0 0 0 0 0 
0 0 0 0 0 0 0 
0.0459847756497971 -0.005004483671835292 -0.001814520172114969 -0.004145114135848518 -0.009404234829517161 -0.04717556909432816 -0.006014176664046439 
0 0 0 0 0 0 0 
0 0 0 0 0 0 0 
0.0317173054076 -0.02792350150334559 -0.001967340821588001 -0.0121568069726561 -0.006510180818069369 -0.01091625690758746 -0.002912937301291784 
0 0 0 0 0 0 0 
0 0 0 0 0 0 0 
0.005581043884497627 -0.003204226296462999 -0.0002618223979899658 -0.002449214369465969 -0.005951212181895658 -0.002732572274779002 -0.001511975610657819 
0 0 0 0 0 0 0 
0 0 0 0 0 0 0 
-0.6240606282166817 -0.4082531855444646 -0.02209466952179286 0.5099681950893329 -0.044621203045025 0.5356022055991072 -0.08710787068747972 
0 0 0 0 0 0 0 
0 0 0 0 0 0 0 
0.01987015774231548 -0.01376719916995218 -0.009285192078370261 -0.01278299997261366 -0.02168857534584114 -0.01233798237983062 -0.01456489084951899 
0 0 0 0 0 0 0 
0 0 0 0 0 0 0 
-0.2947343993737846 0.4653176866365043 -0.006707405167352389 -0.06237477227534122 -0.02961011538090884 -0.0332808687638475 -0.003858190209754382 
0 0 0 0 0 0 0 
0 0 0 0 0 0 0 
0.003597861589428709 -0.001235135523550125 -9.71372436147532e-05 -0.003010561981244761 -0.000640197550547878 -0.00308016917930128 -0.001112644874405962 
0 0 0 0 0 0 0 
0 0 0 0 0 0 0 
0.0006048482100507534 -0.002058080920087365 -0.00192907749833861 -0.001997030224324663 -0.001345836626377341 -0.001351993863438877 -0.001898277186390589 
0 0 0 0 0 0 0 
0 0 0 0 0 0 0 
0.07357194095652636 -0.06244066734685708 -0.0126107801321899 -0.04770180039616019 -0.02983483123981181 -0.06311094861945848 -0.02739904239936261 
0 0 0 0 0 0 0 
0 0 0 0 0 0 0 
0.01133728446882196 -0.001075142741175368 -0.001246252216795484 -0.01498349397358341 -0.006856191722043914 -0.007109972222266774 -0.003487198614596109 
0 0 0 0 0 0 0 
0 0 0 0 0 0 0 
0.7610344962548075 -0.01206641947360364 -0.3561533949093671 -0.00265729507823383 -0.124116530458413 -0.01019996167740083 -0.1639049620483361 
0 0 0 0 0 0 0 
0 0 0 0 0 0 0 
-0.08086853652136868 -0.09346223282861245 -0.138351757209504 -0.008847930335167569 0.6346990614433187 -0.003364862888007714 -0.08410610304203742 
0 0 0 0 0 0 0 
0 0 0 0 0 0 0 
0.02390482568941188 -0.04408916422268758 -0.03166959732480083 -0.02572241666845499 -0.02629289650083347 -0.01587862953765557 -0.02189204028625003 
0 0 0 0 0 0 0 
0 0 0 0 0 0 0 
0.008196023089330312 -0.00107931078709325 -0.01312469809064193 -0.00225650247201639 -0.02173365389484529 -0.001732860799537326 -0.01955521705892213 
0 0 0 0 0 0 0 
0 0 0 0 0 0 0 
-0.1853772333017569 0.3311341964142409 -0.004571838008041922 -0.07736049134216275 -0.01191390584800833 -0.08506135177321178 -0.004367786879243784 
0 0 0 0 0 0 0 
0 0 0 0 0 0 0 
0.0177196702325213 -0.002585321658432129 -0.001928237327859253 -0.001511203207260478 -0.004443782374277045 -0.01290350842287057 -0.002799392131657381 
0 0 0 0 0 0 0 
0 0 0 0 0 0 0 
0.007385615718375458 -0.008222882228118398 -0.005790185474719314 -0.0061431558683843 -0.009875846714099475 -0.007856129526018775 -0.01119491791003486 
0 0 0 0 0 0 0 
0 0 0 0 0 0 0 
0.03899340702195365 -0.02978199962695422 -0.007018556520230827 -0.0150570238243725 -0.01430425210313163 -0.01850294901886541 -0.008912183972941516 
0 0 0 0 0 0 0 
0 0 0 0 0 0 0 
0.6620186948831644 -0.1198529048109921 -0.01055803084874609 -0.02679178601257067 -0.005116936657962444 -0.3828119230908575 -0.008532900371886244 
0 0 0 0 0 0 0 
0 0 0 0 0 0 0 
0.02043214352432507 -0.004047925155870741 -0.001169612165633532 -0.006812813985321305 -0.01570333228714376 -0.01465009400187939 -0.00952560556627333 
0 0 0 0 0 0 0 
0 0 0 0 0 0 0 
0.006085826279168348 -0.00101319640935987 -0.0001659946374911666 -0.002091470400841313 -0.00469562733036577 -0.005485330149521233 -0.001161296580854099 
0 0 0 0 0 0 0 
0 0 0 0 0 0 0 
0.6065169531811272 -0.4284560422645659 -0.8946945561773177 -0.2202357825484038 -0.6005214425785788 -0.1763992194929601 -0.5562932443075326 
0 0 0 0 0 0 0 
0 0 0 0 0 0 0 
-0.08086853652136868 -0.09346223282861245 -0.138351757209504 -0.008847930335167569 -0.194458655695634 -0.003364862888007714 0.8133385324605623 
0 0 0 0 0 0 0 
0 0 0 0 0 0 0 
0.009854394965021463 -0.001722419857338117 -0.00040266272061803 -0.01245531399038149 -0.009679364285866261 -0.006553092338350282 -0.005066397530589211 
0 0 0 0 0 0 0 
0 0 0 0 0 0 0 
0.003560753055014936 -0.001441485323226017 -0.002704630770461455 -0.0008262362620992125 -0.001751621386861755 -0.001158094493790383 -0.001062648790734322 
0 0 0 0 0 0 0 
0 0 0 0 0 0 0 
-0.157000276129657 -0.1462993414549742 -0.005139942254992654 -0.0535910252420264 -0.01012581372164917 0.451123988261851 -0.01017004090783932 
0 0 0 0 0 0 0 
0 0 0 0 0 0 0 
0.009261801012820189 -0.003671379831241741 -0.004484501635040405 -0.002059787305950288 -0.002105090265615469 -0.006782006315334087 -0.003301041263218436 
0 0 0 0 0 0 0 
0 0 0 0 0 0 0 
0.02447206659087985 -0.008355109976726846 -0.001725523438494244 -0.004786579784008415 -0.005252557870133198 -0.01264869507145304 -0.003612758597718836 
0 0 0 0 0 0 0 
0 0 0 0 0 0 0 
0.007993030952269983 -0.003783164187541707 -0.001258037711474089 -0.01114123393785799 -0.007985870934446263 -0.005140372587792592 -0.002982264918897894 
0 0 0 0 0 0 0 
0 0 0 0 0 0 0 
0.01272963666210961 -0.001647821777846682 -0.002805657939233726 -0.008557057680331256 -0.01968612780843694 -0.009915463107432167 -0.01253302083469064 
0 0 0 0 0 0 0 
0 0 0 0 0 0 0 
0.0008588464218591082 -0.0007571906369158754 -0.0005106770648012095 -0.00248792445895909 -0.001667171378773521 -0.0009502233702066915 -0.001684824457549995 
0 0 0 0 0 0 0 
0 0 0 0 0 0 0 
0.002096202298868645 -0.000997094799023308 -0.000413784185365881 -0.003915123655118469 -0.003315899962610838 -0.007289185990400539 -0.004943022244416282 
0 0 0 0 0 0 0 
0 0 0 0 0 0 0 
0.001770956069602685 -0.0009006068494188605 -0.00447472635606514 -0.001008724801966429 -0.001096940868545616 -0.003220060438314176 -0.001591960699414845 
0 0 0 0 0 0 0 
0 0 0 0 0 0 0 
0.001832643348863224 9.902692496919607e-05 -6.571187905206395e-05 -0.007077038621328622 -0.001103687239194263 -0.001620596065761477 -0.0003527947006443861 
0 0 0 0 0 0 0 
0 0 0 0 0 0 0 
0.7186123529046615 -0.07225938929307288 -0.08597599927791084 -0.05443502589174473 -0.03327957767302103 -0.5381144724469433 -0.02733638886685849 
0 0 0 0 0 0 0 
0 0 0 0 0 0 0 
-0.2976123514382276 -0.04285509480106236 -0.04013939247333662 -0.02418588395561201 -0.008418965903831239 0.3921670454416928 -0.01012720638733058 
0 0 0 0 0 0 0 
0 0 0 0 0 0 0 
0.03370720261573971 -0.01130883971425735 -0.01010486788550296 -0.02613490314738372 -0.02054211255958225 -0.03101772397244177 -0.01683639121938827 
0 0 0 0 0 0 0 
0 0 0 0 0 0 0 
0.02478600920937576 -0.00301331806561792 -0.004092529120284395 -0.01672666068030037 -0.00813145899891069 -0.01660344923739153 -0.006327113240300606 
0 0 0 0 0 0 0 
0 0 0 0 0 0 0 
0.005407418201439326 -0.009502018053283951 -0.0008590414619548697 -0.007081173927898031 -0.006120224338480361 -0.002025402029476788 -0.002127313899115926 
0 0 0 0 0 0 0 
0 0 0 0 0 0 0 
0.004157013070970596 -0.001222300853427328 -0.001020280474852433 -0.001882055485763173 -0.002127599825693849 -0.005281773587325719 -0.00149567177307113 
0 0 0 0 0 0 0 
0 0 0 0 0 0 0 
0.03314903394629497 -0.001313133157853147 -0.0007934380784218129 -0.07643837196713035 -0.01491260245354038 -0.02381707405409103 -0.005388382548137808 
0 0 0 0 0 0 0 
0 0 0 0 0 0 0 
0.00357525324377804 -4.296252472730356e-05 -0.0002506034476504137 -0.006736888106926828 -0.001532946368861564 -0.002905362119478942 -0.0004776146872207569 
0 0 0 0 0 0 0 
0 0 0 0 0 0 0 
0.01662456261158589 -0.02200986299506292 -0.008246307728472948 -0.01987572586365583 -0.02456982682317675 -0.01085842366670268 -0.01812662092189397 
0 0 0 0 0 0 0 
0 0 0 0 0 0 0 
0.001772809882375861 -0.002327831714515045 -0.0005555592651477651 -0.0024530165321967 -0.001882436258646808 -0.0009073886854874485 -0.002407385074717744 
0 0 0 0 0 0 0 
0 0 0 0 0 0 0 
0.02622538947360899 -0.02143037973988409 -0.001809181063385183 -0.006091913088747315 -0.006874960529731884 -0.007890060081541811 -0.004012625002723745 
0 0 0 0 0 0 0 
0 0 0 0 0 0 0 
0.01048290655184386 -0.0009894534385263009 -0.0005494290981967944 -0.001540909125527709 -0.003045164029493885 -0.01619651377078143 -0.001414049568782524 
0 0 0 0 0 0 0 
0 0 0 0 0 0 0 
-0.4991787628498691 -0.1303617087497734 -0.6277656472196268 -0.01677134494394702 1.845671652014594 -0.01830566450030939 -0.3639408630863177 
0 0 0 0 0 0 0 
0 0 0 0 0 0 0 
0.009293677705001056 -0.001572172444210383 -0.006679736147873401 -0.003582555546443389 -0.006524000752871663 -0.0155462426565148 -0.007046681943011426 
0 0 0 0 0 0 0 
0 0 0 0 0 0 0 
0.006160848571065195 -0.0006611493952775587 -0.0001117140041874374 -0.009919973000378682 -0.003962004602477011 -0.005382746532585995 -0.001908291567824719 
0 0 0 0 0 0 0 
0 0 0 0 0 0 0 
0.4333868261007089 -0.2488655807177025 -0.006217610276061057 -0.02784999254320615 -0.0009972519626637675 -0.06873926824672509 -0.001429007318164371 
0 0 0 0 0 0 0 
0 0 0 0 0 0 0 
0.0506721412326479 -0.06360089250820618 -0.05136017476210322 -0.02853414122070439 -0.03762972715312191 -0.03687360897437903 -0.03701231269246445 
0 0 0 0 0 0 0 
0 0 0 0 0 0 0 
0.01254167237514272 -0.0002278409276233189 -0.02366059864743201 -0.0001313042570045216 -0.02430057006773084 2.233177887524482e-05 -0.02172991288836415 
0 0 0 0 0 0 0 
0 0 0 0 0 0 0 
0.01840850840093518 -0.002867318884341695 -0.07864775555726025 -0.003203648815909401 -0.03651632503076616 -0.0005620060015066605 -0.05020280325317294 
0 0 0 0 0 0 0 
0 0 0 0 0 0 0 
0.004116510677589758 -0.0003659559910743138 -0.0004620400276012703 -0.002483477614584216 -0.004667107340740899 -0.003715850232208968 -0.002490920083030749 
0 0 0 0 0 0 0 
0 0 0 0 0 0 0 
0.02114269354806396 -0.0002295901805136388 -0.06715430486063265 -9.977427227118757e-05 -0.01599095904974073 -6.243455584379937e-05 -0.0260679441942363 
0 0 0 0 0 0 0 
0 0 0 0 0 0 0 
0.009484034461077309 -0.0001497811524096711 -0.0008693799801077817 -0.004467182223902593 -0.001030284347162356 -0.008735499728087273 -0.0008351094354985821 
0 0 0 0 0 0 0 
0 0 0 0 0 0 0 
-0.1991858917178484 1.01043651007997 -0.1397524501032505 -0.1218712748207444 -0.2045495533732968 -0.2140706480392095 -0.08741491426954014 
0 0 0 0 0 0 0 
0 0 0 0 0 0 0 
0.04365831555535819 -0.02107627304720264 -0.006860626667785046 -0.01977493385716097 -0.0299464828942049 -0.02829803136303286 -0.01515995174031395 
0 0 0 0 0 0 0 
0 0 0 0 0 0 0 
-0.1430130869958979 -0.01041309635948701 0.3837418720473916 -0.00194622849443898 -0.08653568607858413 -0.009118048338399552 -0.1216240479796356 
0 0 0 0 0 0 0 
0 0 0 0 0 0 0 
0.001851163709433618 5.08339113292392e-05 -9.176732305481565e-05 -0.008775866784406882 -0.0008297720240774241 -0.001846590504390485 -0.0006103815703106608 
0 0 0 0 0 0 0 
0 0 0 0 0 0 0 
0.6040322413852978 -0.01078534693426812 -0.2174406901550584 -0.002635703814670103 -0.1236538975056294 -0.003059888322931473 -0.1042912863166221 
0 0 0 0 0 0 0 
0 0 0 0 0 0 0 
0.008969023736001516 -0.01907830268237801 -0.006779298127069191 -0.01346146084591011 -0.01788011060153821 -0.006247704044848955 -0.01365619473479132 
0 0 0 0 0 0 0 
0 0 0 0 0 0 0 
0.007215877871023372 -0.003162460452891744 -0.001884291550029609 -0.001066921051543048 -0.000684866882877528 -0.004252264050618753 -0.001213263470777495 
0 0 0 0 0 0 0 
0 0 0 0 0 0 0 
0.2527587700012032 -0.03712553816657169 -0.005565518552852401 -0.06372668590579084 -0.01980975250424621 -0.2551938894396248 -0.02689185303133532 
0 0 0 0 0 0 0 
0 0 0 0 0 0 0 
-0.1896184948346553 0.6960444887726853 -0.003500833081041622 -0.1214307187371202 -0.04930480727588851 -0.1741946229499308 -0.0107931930842496 
0 0 0 0 0 0 0 
0 0 0 0 0 0 0 
-0.1805789885230671 -0.05969270432421954 -0.008269576962487321 -0.02444054355984772 -0.01910828587947743 0.3881812305905531 -0.0112508660771352 
0 0 0 0 0 0 0 
0 0 0 0 0 0 0 
0.006441900998407023 -0.002424978023131867 -0.001445837867440729 -0.01028659822808912 -0.004447796756864637 -0.004088391513809988 -0.002342134553637024 
0 0 0 0 0 0 0 
0 0 0 0 0 0 0 
0.01365100793516483 -0.004657924524868722 -0.0004542583375079197 -0.004606594746784688 -0.002370750667945887 -0.009836939699611361 -0.00174697288418856 
0 0 0 0 0 0 0 
0 0 0 0 0 0 0 
0.007271418294601639 -0.0003582432464008717 -0.001434750120487874 -0.001827504460503639 -0.003034421993638456 -0.01103091702485392 -0.003019651899322577 
0 0 0 0 0 0 0 
0 0 0 0 0 0 0 
0.004742378494326746 -0.003125937059413602 -0.0008348706002368653 -0.002748902944852729 -0.007676407495380213 -0.003415090488542293 -0.003070322400557763 
0 0 0 0 0 0 0 
0 0 0 0 0 0 0 
0.01110685778297471 -0.006388662548237054 -0.0005234935502451991 -0.004886524328828971 -0.0118365894774001 -0.005451292586680873 -0.003019455416809753 
0 0 0 0 0 0 0 
0 0 0 0 0 0 0 
0.01648793783465636 -0.002562253683472817 -0.003552917690820657 -0.002771467794304136 -0.005918260091944672 -0.01256757009489496 -0.005847072826464633 
0 0 0 0 0 0 0 
0 0 0 0 0 0 0 
0.05051807418740104 -0.006948254622491966 -0.0142686346880866 -0.02642516204448736 -0.02813877282783113 -0.05691133347473885 -0.02513230745942372 
0 0 0 0 0 0 0 
0 0 0 0 0 0 0 
0.09122618540710575 -0.01562427346791927 -0.000661092229578185 -0.03279139175758494 -0.05114627237865777 -0.03450338302506716 -0.008753951565889699 
0 0 0 0 0 0 0 
0 0 0 0 0 0 0 
0.002978861092670092 -0.0001413756347861081 -4.557883442001605e-05 -0.007220823763558289 -0.001339921141926911 -0.001852813307801649 -0.0004316827662501014 
0 0 0 0 0 0 0 
0 0 0 0 0 0 0 
0.005942312163806477 -0.000282579479806658 -9.105696221154943e-05 -0.01434119591851848 -0.002676825046062854 -0.003699199094762093 -0.0008630424558443443 
0 0 0 0 0 0 0 
0 0 0 0 0 0 0 
0.05217904612755168 -0.03407310836893222 -0.03275055133810735 -0.04305088131053077 -0.03347816415316029 -0.04699203693140814 -0.0311589805187932 
0 0 0 0 0 0 0 
0 0 0 0 0 0 0 
0.002135659238994551 -0.001026894556886644 -0.006643308319830265 -0.001663629545844114 -0.002525113174998562 -0.00540960610795361 -0.003582021191351228 
0 0 0 0 0 0 0 
0 0 0 0 0 0 0 
0.02114269354806396 -0.0002295901805136388 -0.06715430486063265 -9.977427227118757e-05 -0.01599095904974073 -6.243455584379937e-05 -0.0260679441942363 
0 0 0 0 0 0 0 
0 0 0 0 0 0 0 
0.006105799713889473 -0.002220882175647751 -0.004315675926255676 -0.002287495041882532 -0.00203059725461757 -0.006751293668247479 -0.002322281569468701 
0 0 0 0 0 0 0 
0 0 0 0 0 0 0 
0.01952451195560062 -0.01292537741093394 -0.005042001238743366 -0.009447783425937653 -0.01102673318863007 -0.0113620693583157 -0.005429319289561561 
0 0 0 0 0 0 0 
0 0 0 0 0 0 0 
0.0103498734855928 -0.0004849428016640525 -0.01161023142133739 -0.0001370932234466562 -0.02213053093009671 8.913016719528928e-05 -0.0203985356604668 
0 0 0 0 0 0 0 
0 0 0 0 0 0 0 
0.01700395633175782 -0.001255304993754363 -0.0004255439489317123 -0.03747962531852626 -0.01058416924686647 -0.01129414480142236 -0.00439237737643209 
0 0 0 0 0 0 0 
0 0 0 0 0 0 0 
0.0006423601476816312 -0.0009370952353429331 -0.001458199486504777 -0.001368974050772635 -0.001697435337820259 -0.001075969145525013 -0.001305189475336428 
0 0 0 0 0 0 0 
0 0 0 0 0 0 0 
0.002978861092670092 -0.0001413756347861081 -4.557883442001605e-05 -0.007220823763558289 -0.001339921141926911 -0.001852813307801649 -0.0004316827662501014 
0 0 0 0 0 0 0 
0 0 0 0 0 0 0 
0.02026596881288938 -0.008111239308197481 -0.001608277701585428 -0.0098520850138236 -0.01210020594342326 -0.005087553446207024 -0.003726943640704689 
0 0 0 0 0 0 0 
0 0 0 0 0 0 0 
0.01660621855389376 -0.003984263245349626 -0.01419648276580333 -0.006175567770687817 -0.03418203504680574 -0.003781905578764244 -0.02944348759322719 
0 0 0 0 0 0 0 
0 0 0 0 0 0 0 
0.4801615313106871 -0.2984521640766381 -0.001078611162662756 -0.08805546394128513 -0.001875481951661468 -0.1119356241716088 -0.001796608883339119 
0 0 0 0 0 0 0 
0 0 0 0 0 0 0 
0.2210720962890391 -0.09197652640016925 -0.0008922644049187261 -0.03143774236212449 -0.0009029822906509786 -0.07349697247277057 -0.002153902883028303 
0 0 0 0 0 0 0 
0 0 0 0 0 0 0 
-0.9215752165155884 -0.0004849428016640525 -0.01161023142133739 -0.0001370932234466562 0.9213651165369477 8.913016719528928e-05 -0.0203985356604668 
0 0 0 0 0 0 0 
0 0 0 0 0 0 0 
1.188868747561829 -0.6168269469364693 -0.1116163169152904 -0.3344614212918989 -0.1350123242986227 -0.5050010058132608 -0.0970056061986846 
0 0 0 0 0 0 0 
0 0 0 0 0 0 0 
0.02490766855848195 -0.00658248486669963 -0.0009549159428254763 -0.005486687389478212 -0.008201638512121362 -0.01591833737010876 -0.003429572026130257 
0 0 0 0 0 0 0 
0 0 0 0 0 0 0 
0.009252978355991462 -0.003323645554403926 -0.002949250802601673 -0.007549378275506348 -0.01004921699801945 -0.00874866915846117 -0.00783946732004924 
0 0 0 0 0 0 0 
0 0 0 0 0 0 0 
0.01926062345031196 -0.01767010976587913 -0.01884938016537193 -0.01702111150094916 -0.02255478960420594 -0.02430783619885393 -0.02588923246167823 
0 0 0 0 0 0 0 
0 0 0 0 0 0 0 
0.7610344962548075 -0.01206641947360364 -0.3561533949093671 -0.00265729507823383 -0.124116530458413 -0.01019996167740083 -0.1639049620483361 
0 0 0 0 0 0 0 
0 0 0 0 0 0 0 
0.002839704098793704 -0.0006287623417940834 -0.001102756501603408 -0.0007178473500234206 -0.0008334581715849836 -0.007546458422103602 -0.002306242402301629 
0 0 0 0 0 0 0 
0 0 0 0 0 0 0 
0.08093072023246585 -0.06223379234819486 -0.008959949999744334 -0.05406958922311379 -0.05714158251804906 -0.06762728350204331 -0.02619915554408283 
0 0 0 0 0 0 0 
0 0 0 0 0 0 0 
-0.6982190852428082 -0.1051374635265982 2.324659947496484 -0.3288055967492568 -0.82621906978605 0.6131106702059989 -0.4319496397463158 
0 0 0 0 0 0 0 
0 0 0 0 0 0 0 
0.003465594109502329 -0.0007911661024010655 -0.0001786200199118624 -0.002660702416604894 -0.004194978681700889 -0.002363488774576939 -0.002324266858496496 
0 0 0 0 0 0 0 
0 0 0 0 0 0 0 
0.05586703077168635 -0.006061853255268905 -0.008337367560731493 -0.09615002475429729 -0.03447858492114114 -0.05479229987005993 -0.01899942772117667 
0 0 0 0 0 0 0 
0 0 0 0 0 0 0 
0.01284814316350631 -0.01802224043294554 -0.005879848285721676 -0.01220936005577684 -0.009615893080610333 -0.006698309735637805 -0.01406054324435103 
0 0 0 0 0 0 0 
0 0 0 0 0 0 0 
1.059227229414788 -0.6871541599468817 -0.003228577471594412 -0.2321055151887191 -0.005600664262390366 -0.2908874531957983 -0.005370659331191734 
0 0 0 0 0 0 0 
0 0 0 0 0 0 0 
-1.29852808350116e-05 -0.0007429760536035856 -0.0005716069106843021 -0.0008336512461946531 -0.001107368398751703 -0.0006923682753383543 -0.002457975847552335 
0 0 0 0 0 0 0 
0 0 0 0 0 0 0 
0.02802396641243539 -0.02096430427712961 -0.003984898574441273 -0.01000423367602715 -0.007934343602222118 -0.0119606121148627 -0.0064616734354898 
0 0 0 0 0 0 0 
0 0 0 0 0 0 0 
0.005738373955249979 -0.004733513055710323 -6.573529579881987e-05 -0.002467615043113679 -0.001031430902203864 -0.003159978486099551 -0.0008072231941937066 
0 0 0 0 0 0 0 
0 0 0 0 0 0 0 
0.002978861092670092 -0.0001413756347861081 -4.557883442001605e-05 -0.007220823763558289 -0.001339921141926911 -0.001852813307801649 -0.0004316827662501014 
0 0 0 0 0 0 0 
0 0 0 0 0 0 0 
-0.09779716728167058 -0.0216608141749587 0.5202843106467765 -0.003693813618162432 -0.1534095232174488 -0.007322319425937973 -0.1817552599770411 
0 0 0 0 0 0 0 
0 0 0 0 0 0 0 
-0.1430130869958979 -0.01041309635948701 0.3837418720473916 -0.00194622849443898 -0.08653568607858413 -0.009118048338399552 -0.1216240479796356 
0 0 0 0 0 0 0 
0 0 0 0 0 0 0 
0.01069331527629788 -0.004953258695974349 -0.001786569175602872 -0.01553500446760362 -0.01030967212605219 -0.009277321272390653 -0.006845235272522235 
0 0 0 0 0 0 0 
0 0 0 0 0 0 0 
0.001886728576898898 -0.00037816487143018 -0.003496131458327396 -0.001705945852545659 -0.001208305683464618 -0.004602668729228027 -0.002194566449656261 
0 0 0 0 0 0 0 
0 0 0 0 0 0 0 
0.04154166763887504 -0.0004590453462338567 -0.1272073402729985 -0.0001995324503568206 -0.03153032356368814 -0.0001248091273630745 -0.05091060574163314 
0 0 0 0 0 0 0 
0 0 0 0 0 0 0 
-0.1788756985624863 -0.2050433082112281 -1.164287066590372 -0.03849767809522112 -0.6374627752209562 -0.1661589962678555 1.353287683346631 
0 0 0 0 0 0 0 
0 0 0 0 0 0 0 
0.02958357301885377 -0.005936600445677307 -0.004013118716314247 -0.01152338687699083 -0.01537393668806088 -0.03881207272278103 -0.01314231659518718 
0 0 0 0 0 0 0 
0 0 0 0 0 0 0 
0.02117683873318984 -0.007502052020383685 -0.00590346372585744 -0.03495270133280763 -0.008717891098210039 -0.01187226969865728 -0.007464151172393988 
0 0 0 0 0 0 0 
0 0 0 0 0 0 0 
0.1749420912553615 -0.03981691550124003 -0.01971269283167806 -0.0241490867513595 -0.01043554117338205 -0.06119717170472943 -0.007364610816864021 
0 0 0 0 0 0 0 
0 0 0 0 0 0 0 
-0.7672136766440738 -0.04645775153545743 -0.004349405481762915 -0.1459732773090202 -0.03362007052763864 1.309711762710948 -0.0154705003501618 
0 0 0 0 0 0 0 
0 0 0 0 0 0 0 
0.03623350376473561 -0.02563761187800464 -0.01139241329276766 -0.01979226080957315 -0.01662267409839112 -0.02751936577299272 -0.0116051333660936 
0 0 0 0 0 0 0 
0 0 0 0 0 0 0 
0.01541171976447501 -0.002761726553126753 -0.001811558489265879 -0.01425081040341066 -0.01243271034465415 -0.009873010143259218 -0.007919118670409285 
0 0 0 0 0 0 0 
0 0 0 0 0 0 0 
-0.1692925853697536 -0.1037808354946973 0.9844765600457783 -0.01145853554412492 -0.2892685764485388 -0.01349887890362418 -0.2291068241798373 
0 0 0 0 0 0 0 
0 0 0 0 0 0 0 
0.03727521746105304 -0.01244412613285305 -0.06861518723094569 -0.001861676517981405 -0.0246590823833717 -0.00126202448482699 -0.01440736094145881 
0 0 0 0 0 0 0 
0 0 0 0 0 0 0 
0.002978861092670092 -0.0001413756347861081 -4.557883442001605e-05 -0.007220823763558289 -0.001339921141926911 -0.001852813307801649 -0.0004316827662501014 
0 0 0 0 0 0 0 
0 0 0 0 0 0 0 
0.005478827003544936 -0.006657942641645148 -0.004576827239901007 -0.00552363077773475 -0.004598612998042068 -0.006097029865283978 -0.006676272475323507 
0 0 0 0 0 0 0 
0 0 0 0 0 0 0 
0.2007091529748889 -0.009466936068112233 -0.3305177126912782 -0.02884301417025716 -0.198574373524548 -0.01913893020280615 -0.2839934006356995 
0 0 0 0 0 0 0 
0 0 0 0 0 0 0 
-0.1805789885230671 0.8358423911925392 -0.008269576962487321 -0.02444054355984772 -0.01910828587947743 -0.4005173623809297 -0.0112508660771352 
0 0 0 0 0 0 0 
0 0 0 0 0 0 0 
0.001883339449401793 -0.0010177324805458 -0.0003405179057943043 -0.001814079957451048 -0.001846252710987376 -0.001537340949487179 -0.0006589583879216427 
0 0 0 0 0 0 0 
0 0 0 0 0 0 0 
0.01048290655184386 -0.0009894534385263009 -0.0005494290981967944 -0.001540909125527709 -0.003045164029493885 -0.01619651377078143 -0.001414049568782524 
0 0 0 0 0 0 0 
0 0 0 0 0 0 0 
0.01762435518957314 -0.001346998128303947 -0.001982568463674123 -0.003362852962168414 -0.006063279327186491 -0.02689856866631645 -0.004425339906402794 
0 0 0 0 0 0 0 
0 0 0 0 0 0 0 
0.002978861092670092 -0.0001413756347861081 -4.557883442001605e-05 -0.007220823763558289 -0.001339921141926911 -0.001852813307801649 -0.0004316827662501014 
0 0 0 0 0 0 0 
0 0 0 0 0 0 0 
0.06141673586787833 -0.02165639622134813 -0.009008191991389873 -0.02704773350382137 -0.04613762093232222 -0.04938878580545326 -0.02081276798655185 
0 0 0 0 0 0 0 
0 0 0 0 0 0 0 
0.008439622665210426 -0.002255749786386432 -0.001305010765213224 -0.00466886920149944 -0.006507056081326308 -0.004365724178940786 -0.005026301925613493 
0 0 0 0 0 0 0 
0 0 0 0 0 0 0 
0.02263587087371455 -0.01135369300463912 -0.01856002134721621 -0.02199244636935603 -0.02216350786216064 -0.02488091404148103 -0.02024384711720365 
0 0 0 0 0 0 0 
0 0 0 0 0 0 0 
-1.104329660476991 2.014544666665696 0.1160021867532699 -0.3343174804699883 -0.2152859957155656 -0.7647217812416065 -0.238741103478751 
0 0 0 0 0 0 0 
0 0 0 0 0 0 0 
0.02033122811887113 -0.009726596169506397 -0.001396157280233226 -0.008618404278934674 -0.01232118620308897 -0.03334577584075035 -0.005298935912548837 
0 0 0 0 0 0 0 
0 0 0 0 0 0 0 
0.002188377163252565 -0.001860511172247789 -0.003035939028809019 -0.003477458665995586 -0.005041959332866105 -0.002871910478360549 -0.004042851036462955 
0 0 0 0 0 0 0 
0 0 0 0 0 0 0 
0.009929956867989821 -0.00347655054560353 -0.002973925260416384 -0.009760523468990886 -0.01011031738047392 -0.009346041137566706 -0.006868010265328732 
0 0 0 0 0 0 0 
0 0 0 0 0 0 0 
0.003074700373619948 -0.002376214416257313 -0.000159909477784704 -0.003309874054506346 -0.003329725035517552 -0.0106177203954367 -0.002323302589112905 
0 0 0 0 0 0 0 
0 0 0 0 0 0 0 
-0.09891503032188367 -0.07257872150904705 0.3827353380272476 -0.002496831608402444 -0.1217663289243299 -0.001635530389239945 -0.06957227625945861 
0 0 0 0 0 0 0 
0 0 0 0 0 0 0 
0.001851163709433618 5.08339113292392e-05 -9.176732305481565e-05 -0.008775866784406882 -0.0008297720240774241 -0.001846590504390485 -0.0006103815703106608 
0 0 0 0 0 0 0 
0 0 0 0 0 0 0 
0.001908787690704026 -0.001354099530551292 -0.001020507743770238 -0.003900321301387793 -0.002200836773629472 -0.001693773628072302 -0.003590191240533891 
0 0 0 0 0 0 0 
0 0 0 0 0 0 0 
0.01186899078565893 -0.001409176459089427 -0.01315581475522251 -0.002250818319464043 -0.02534752482464766 -0.001711611985791666 -0.02303688285623095 
0 0 0 0 0 0 0 
0 0 0 0 0 0 0 
0.03521583375550157 -0.02292482377408585 -0.001131635435775307 -0.01787618460346484 -0.02407011351187415 -0.01583484270666559 -0.006265555100596056 
0 0 0 0 0 0 0 
0 0 0 0 0 0 0 
0.07700086737725645 -0.004622540941895476 -0.1304691588020209 -0.0017060534562367 -0.03334938455343512 -0.01479593927927208 -0.07180693821490221 
0 0 0 0 0 0 0 
0 0 0 0 0 0 0 
0.5309505861059661 -0.1466892411242453 -0.02533036948768345 -0.04289387947239373 -0.02622670253363922 -0.07719032813658713 -0.01197874904680068 
0 0 0 0 0 0 0 
0 0 0 0 0 0 0 
0.01896853955302981 -0.01539321246390939 -0.003084758674925408 -0.01179103504426995 -0.006054612757224501 -0.01261260367099997 -0.003475723690732336 
0 0 0 0 0 0 0 
0 0 0 0 0 0 0 
0.0004882291203533009 -0.0002904222378550813 -0.0005276661860663798 -0.002438683573951212 -0.001387212844030822 -0.0008561244469112216 -0.001388421782620033 
0 0 0 0 0 0 0 
0 0 0 0 0 0 0 
0.002149198948159163 -0.004779043976797566 -0.003558585022927056 -0.003857706112679394 -0.002939387081055592 -0.002539467249525704 -0.002814579417433313 
0 0 0 0 0 0 0 
0 0 0 0 0 0 0 
0.0008281364884124551 -0.0005272875739937336 -0.0007634679124887849 -0.002771576267987856 -0.001891735922966998 -0.001201417797533409 -0.003480531625378175 
0 0 0 0 0 0 0 
0 0 0 0 0 0 0 
-0.1430130869958979 -0.01041309635948701 0.3837418720473916 -0.00194622849443898 -0.08653568607858413 -0.009118048338399552 -0.1216240479796356 
0 0 0 0 0 0 0 
0 0 0 0 0 0 0 
0.002241787383425863 -0.005083229359608885 -0.001895737671611779 -0.001349745802976556 -0.002152371934976722 -0.0003676795034678373 -0.000628128481837368 
0 0 0 0 0 0 0 
0 0 0 0 0 0 0 
0.7789270716782052 -0.7425217287859515 -0.8510095925276489 -0.5889122944959021 -0.8618436254324161 -0.4517742960799885 -0.803222519483261 
0 0 0 0 0 0 0 
0 0 0 0 0 0 0 
0.6040322413852978 -0.01078534693426812 -0.2174406901550584 -0.002635703814670103 -0.1236538975056294 -0.003059888322931473 -0.1042912863166221 
0 0 0 0 0 0 0 
0 0 0 0 0 0 0 
0.00319531573575216 -0.00116263008312708 -0.003013520294731832 -0.002750300013117289 -0.01259424384221039 -0.0009575542137468169 -0.004239273532645256 
0 0 0 0 0 0 0 
0 0 0 0 0 0 0 
-0.1454736961308115 0.550936226088783 -0.001394439332181499 -0.1059786567095401 -0.04930345308385101 -0.2252908556154085 -0.005099195956144615 
0 0 0 0 0 0 0 
0 0 0 0 0 0 0 
0.6903645266963397 -0.2540960548792665 -0.001394439332181499 -0.1059786567095401 -0.04930345308385101 -0.2252908556154085 -0.005099195956144615 
0 0 0 0 0 0 0 
0 0 0 0 0 0 0 
0.002096202298868645 -0.000997094799023308 -0.000413784185365881 -0.003915123655118469 -0.003315899962610838 -0.007289185990400539 -0.004943022244416282 
0 0 0 0 0 0 0 
0 0 0 0 0 0 0 
0.08970778715296532 -0.008560235756468575 -0.07550393255933975 -0.05199912038820332 -0.04164070480268227 -0.04423131584297001 -0.04823712249455441 
0 0 0 0 0 0 0 
0 0 0 0 0 0 0 
0.008605188448641837 -0.003848516807026746 -0.0002649916003744584 -0.003817078400069039 -0.003359607634272305 -0.00708489432511124 -0.001344990291746305 
0 0 0 0 0 0 0 
0 0 0 0 0 0 0 
0.6350030056549115 -0.462937110143932 -0.004571838008041922 -0.07736049134216275 -0.01191390584800833 -0.08506135177321178 -0.004367786879243784 
0 0 0 0 0 0 0 
0 0 0 0 0 0 0 
0.007551941897442017 -0.01500307356172955 -0.006137254587971264 -0.007032302889400837 -0.008636011266841964 -0.004864359190944132 -0.007377873379716962 
0 0 0 0 0 0 0 
0 0 0 0 0 0 0 
-0.08086853652136868 0.7773605899476763 -0.138351757209504 -0.008847930335167569 -0.194458655695634 -0.003364862888007714 -0.08410610304203742 
0 0 0 0 0 0 0 
0 0 0 0 0 0 0 
0.03291504909401988 -0.002152859680461955 -0.06746627870018858 -0.0001292411943135152 -0.0238424208311243 5.939024938587408e-05 -0.01370569573770252 
0 0 0 0 0 0 0 
0 0 0 0 0 0 0 
0.4801615313106871 -0.2984521640766381 -0.001078611162662756 -0.08805546394128513 -0.001875481951661468 -0.1119356241716088 -0.001796608883339119 
0 0 0 0 0 0 0 
0 0 0 0 0 0 0 
-0.7421279210058083 -0.1643762690209978 -0.9188939278694165 -0.02540025091309962 0.4426886320231125 -0.03119002567070006 1.755228399764925 
0 0 0 0 0 0 0 
0 0 0 0 0 0 0 
0.004579134540221325 -0.005247736996917908 -0.003060496537828587 -0.006000155313929909 -0.002546240625600093 -0.01142824476384456 -0.002903661394691579 
0 0 0 0 0 0 0 
0 0 0 0 0 0 0 
0.02329681951669562 -0.01892634392578968 -0.01096254368916671 -0.01112602253282597 -0.0101284775978274 -0.01306154192713091 -0.01288315184643215 
0 0 0 0 0 0 0 
0 0 0 0 0 0 0 
-0.07453762273793385 -0.06934337552200727 -0.3720719893589163 0.9685857028683682 0.6890366534087108 -0.5065327216725205 -0.1716691707462021 
0 0 0 0 0 0 0 
0 0 0 0 0 0 0 
